digraph Tree {
node [shape=box, style="filled, rounded", color="black", fontname=helvetica] ;
edge [fontname=helvetica] ;
0 [label="pkt_size_min <= 47.5\ngini = 0.6461\nsamples = 175296\nvalue = [89977, 121474, 65449]\nclass = 1", fillcolor="#defbea"] ;
1 [label="pkt_size_max <= 108.5\ngini = 0.6294\nsamples = 97437\nvalue = [73705, 48251, 32004]\nclass = 0", fillcolor="#f9e1cf"] ;
0 -> 1 [labeldistance=2.5, labelangle=45, headlabel="True"] ;
2 [label="flow_iat_min <= 81.5\ngini = 0.3804\nsamples = 22673\nvalue = [2483, 27441, 5862]\nclass = 1", fillcolor="#70eca4"] ;
1 -> 2 ;
3 [label="pkt_size_max <= 107.5\ngini = 0.1579\nsamples = 16843\nvalue = [1370, 24286, 868]\nclass = 1", fillcolor="#4be78c"] ;
2 -> 3 ;
4 [label="pkt_size_var_approx <= 244.0\ngini = 0.3299\nsamples = 1093\nvalue = [1355, 255, 77]\nclass = 0", fillcolor="#eb9e67"] ;
3 -> 4 ;
5 [label="pkt_size_var_approx <= 45.0\ngini = 0.3725\nsamples = 784\nvalue = [925, 238, 44]\nclass = 0", fillcolor="#eda673"] ;
4 -> 5 ;
6 [label="pkt_size_max <= 54.0\ngini = 0.5817\nsamples = 42\nvalue = [34, 27, 7]\nclass = 0", fillcolor="#fbe9dd"] ;
5 -> 6 ;
7 [label="pkt_size_max <= 42.0\ngini = 0.5925\nsamples = 33\nvalue = [18, 27, 7]\nclass = 1", fillcolor="#cbf8de"] ;
6 -> 7 ;
8 [label="flow_iat_min <= 38.5\ngini = 0.2778\nsamples = 9\nvalue = [10, 0, 2]\nclass = 0", fillcolor="#ea9a61"] ;
7 -> 8 ;
9 [label="gini = 0.48\nsamples = 4\nvalue = [3, 0, 2]\nclass = 0", fillcolor="#f6d5bd"] ;
8 -> 9 ;
10 [label="gini = 0.0\nsamples = 5\nvalue = [7, 0, 0]\nclass = 0", fillcolor="#e58139"] ;
8 -> 10 ;
11 [label="bin_3 <= 6.5\ngini = 0.4888\nsamples = 24\nvalue = [8, 27, 5]\nclass = 1", fillcolor="#89f0b4"] ;
7 -> 11 ;
12 [label="gini = 0.4529\nsamples = 23\nvalue = [6, 27, 5]\nclass = 1", fillcolor="#7deeac"] ;
11 -> 12 ;
13 [label="gini = 0.0\nsamples = 1\nvalue = [2, 0, 0]\nclass = 0", fillcolor="#e58139"] ;
11 -> 13 ;
14 [label="gini = 0.0\nsamples = 9\nvalue = [16, 0, 0]\nclass = 0", fillcolor="#e58139"] ;
6 -> 14 ;
15 [label="pkt_size_max <= 52.5\ngini = 0.3527\nsamples = 742\nvalue = [891, 211, 37]\nclass = 0", fillcolor="#eca36e"] ;
5 -> 15 ;
16 [label="bin_3 <= 5.5\ngini = 0.416\nsamples = 603\nvalue = [660, 211, 37]\nclass = 0", fillcolor="#eeae7f"] ;
15 -> 16 ;
17 [label="flow_iat_min <= 80.5\ngini = 0.5274\nsamples = 83\nvalue = [72, 55, 5]\nclass = 0", fillcolor="#f9e3d3"] ;
16 -> 17 ;
18 [label="gini = 0.5167\nsamples = 71\nvalue = [66, 41, 5]\nclass = 0", fillcolor="#f6d3b9"] ;
17 -> 18 ;
19 [label="gini = 0.42\nsamples = 12\nvalue = [6, 14, 0]\nclass = 1", fillcolor="#8ef0b7"] ;
17 -> 19 ;
20 [label="pkt_size_max <= 50.0\ngini = 0.3837\nsamples = 520\nvalue = [588, 156, 32]\nclass = 0", fillcolor="#eda775"] ;
16 -> 20 ;
21 [label="gini = 0.3896\nsamples = 392\nvalue = [437, 127, 19]\nclass = 0", fillcolor="#eda978"] ;
20 -> 21 ;
22 [label="gini = 0.3608\nsamples = 128\nvalue = [151, 29, 13]\nclass = 0", fillcolor="#eca16c"] ;
20 -> 22 ;
23 [label="gini = 0.0\nsamples = 139\nvalue = [231, 0, 0]\nclass = 0", fillcolor="#e58139"] ;
15 -> 23 ;
24 [label="bin_5 <= 2.5\ngini = 0.1915\nsamples = 309\nvalue = [430, 17, 33]\nclass = 0", fillcolor="#e88f4f"] ;
4 -> 24 ;
25 [label="pkt_size_max <= 52.5\ngini = 0.1763\nsamples = 297\nvalue = [419, 17, 27]\nclass = 0", fillcolor="#e88e4d"] ;
24 -> 25 ;
26 [label="pkt_size_var_approx <= 294.0\ngini = 0.4012\nsamples = 35\nvalue = [39, 15, 0]\nclass = 0", fillcolor="#efb185"] ;
25 -> 26 ;
27 [label="pkt_size_avg <= 45.0\ngini = 0.32\nsamples = 17\nvalue = [24, 6, 0]\nclass = 0", fillcolor="#eca06a"] ;
26 -> 27 ;
28 [label="gini = 0.3367\nsamples = 16\nvalue = [22, 6, 0]\nclass = 0", fillcolor="#eca36f"] ;
27 -> 28 ;
29 [label="gini = 0.0\nsamples = 1\nvalue = [2, 0, 0]\nclass = 0", fillcolor="#e58139"] ;
27 -> 29 ;
30 [label="bin_3 <= 4.0\ngini = 0.4688\nsamples = 18\nvalue = [15, 9, 0]\nclass = 0", fillcolor="#f5cdb0"] ;
26 -> 30 ;
31 [label="gini = 0.4297\nsamples = 12\nvalue = [11, 5, 0]\nclass = 0", fillcolor="#f1ba93"] ;
30 -> 31 ;
32 [label="gini = 0.5\nsamples = 6\nvalue = [4, 4, 0]\nclass = 0", fillcolor="#ffffff"] ;
30 -> 32 ;
33 [label="flow_iat_min <= 27.5\ngini = 0.1324\nsamples = 262\nvalue = [380, 2, 27]\nclass = 0", fillcolor="#e78b48"] ;
25 -> 33 ;
34 [label="pkt_size_avg <= 62.5\ngini = 0.417\nsamples = 51\nvalue = [57, 0, 24]\nclass = 0", fillcolor="#f0b68c"] ;
33 -> 34 ;
35 [label="gini = 0.2994\nsamples = 39\nvalue = [49, 0, 11]\nclass = 0", fillcolor="#eb9d65"] ;
34 -> 35 ;
36 [label="gini = 0.4717\nsamples = 12\nvalue = [8, 0, 13]\nclass = 2", fillcolor="#cfb3f5"] ;
34 -> 36 ;
37 [label="pkt_size_max <= 64.5\ngini = 0.0301\nsamples = 211\nvalue = [323, 2, 3]\nclass = 0", fillcolor="#e5833c"] ;
33 -> 37 ;
38 [label="gini = 0.2213\nsamples = 25\nvalue = [36, 2, 3]\nclass = 0", fillcolor="#e89253"] ;
37 -> 38 ;
39 [label="gini = 0.0\nsamples = 186\nvalue = [287, 0, 0]\nclass = 0", fillcolor="#e58139"] ;
37 -> 39 ;
40 [label="pkt_size_avg <= 67.5\ngini = 0.4567\nsamples = 12\nvalue = [11, 0, 6]\nclass = 0", fillcolor="#f3c6a5"] ;
24 -> 40 ;
41 [label="pkt_size_max <= 92.0\ngini = 0.2604\nsamples = 9\nvalue = [11, 0, 2]\nclass = 0", fillcolor="#ea985d"] ;
40 -> 41 ;
42 [label="gini = 0.0\nsamples = 7\nvalue = [10, 0, 0]\nclass = 0", fillcolor="#e58139"] ;
41 -> 42 ;
43 [label="flow_iat_min <= 49.0\ngini = 0.4444\nsamples = 2\nvalue = [1, 0, 2]\nclass = 2", fillcolor="#c09cf2"] ;
41 -> 43 ;
44 [label="gini = 0.0\nsamples = 1\nvalue = [0, 0, 2]\nclass = 2", fillcolor="#8139e5"] ;
43 -> 44 ;
45 [label="gini = 0.0\nsamples = 1\nvalue = [1, 0, 0]\nclass = 0", fillcolor="#e58139"] ;
43 -> 45 ;
46 [label="gini = 0.0\nsamples = 3\nvalue = [0, 0, 4]\nclass = 2", fillcolor="#8139e5"] ;
40 -> 46 ;
47 [label="pkt_size_var_approx <= 793.0\ngini = 0.0628\nsamples = 15750\nvalue = [15, 24031, 791]\nclass = 1", fillcolor="#40e685"] ;
3 -> 47 ;
48 [label="pkt_size_avg <= 51.5\ngini = 0.0493\nsamples = 15029\nvalue = [9, 23086, 590]\nclass = 1", fillcolor="#3ee684"] ;
47 -> 48 ;
49 [label="bin_3 <= 1.5\ngini = 0.0433\nsamples = 14343\nvalue = [0, 22111, 501]\nclass = 1", fillcolor="#3de684"] ;
48 -> 49 ;
50 [label="flow_iat_min <= 78.5\ngini = 0.1454\nsamples = 44\nvalue = [0, 70, 6]\nclass = 1", fillcolor="#4ae78c"] ;
49 -> 50 ;
51 [label="pkt_size_avg <= 49.5\ngini = 0.0286\nsamples = 38\nvalue = [0, 68, 1]\nclass = 1", fillcolor="#3ce583"] ;
50 -> 51 ;
52 [label="gini = 0.0\nsamples = 1\nvalue = [0, 2, 0]\nclass = 1", fillcolor="#39e581"] ;
51 -> 52 ;
53 [label="gini = 0.0294\nsamples = 37\nvalue = [0, 66, 1]\nclass = 1", fillcolor="#3ce583"] ;
51 -> 53 ;
54 [label="flow_iat_min <= 79.5\ngini = 0.4082\nsamples = 6\nvalue = [0, 2, 5]\nclass = 2", fillcolor="#b388ef"] ;
50 -> 54 ;
55 [label="gini = 0.4444\nsamples = 2\nvalue = [0, 1, 2]\nclass = 2", fillcolor="#c09cf2"] ;
54 -> 55 ;
56 [label="gini = 0.375\nsamples = 4\nvalue = [0, 1, 3]\nclass = 2", fillcolor="#ab7bee"] ;
54 -> 56 ;
57 [label="pkt_size_var_approx <= 718.0\ngini = 0.043\nsamples = 14299\nvalue = [0, 22041, 495]\nclass = 1", fillcolor="#3de684"] ;
49 -> 57 ;
58 [label="bin_3 <= 2.5\ngini = 0.0414\nsamples = 13474\nvalue = [0, 20783, 449]\nclass = 1", fillcolor="#3de684"] ;
57 -> 58 ;
59 [label="gini = 0.0412\nsamples = 13030\nvalue = [0, 20082, 432]\nclass = 1", fillcolor="#3de684"] ;
58 -> 59 ;
60 [label="gini = 0.0462\nsamples = 444\nvalue = [0, 701, 17]\nclass = 1", fillcolor="#3ee684"] ;
58 -> 60 ;
61 [label="flow_iat_min <= 72.5\ngini = 0.0681\nsamples = 825\nvalue = [0, 1258, 46]\nclass = 1", fillcolor="#40e686"] ;
57 -> 61 ;
62 [label="gini = 0.1046\nsamples = 392\nvalue = [0, 597, 35]\nclass = 1", fillcolor="#45e788"] ;
61 -> 62 ;
63 [label="gini = 0.0322\nsamples = 433\nvalue = [0, 661, 11]\nclass = 1", fillcolor="#3ce583"] ;
61 -> 63 ;
64 [label="pkt_size_avg <= 63.0\ngini = 0.1674\nsamples = 686\nvalue = [9, 975, 89]\nclass = 1", fillcolor="#4de88e"] ;
48 -> 64 ;
65 [label="pkt_size_var_approx <= 596.0\ngini = 0.1634\nsamples = 681\nvalue = [6, 970, 89]\nclass = 1", fillcolor="#4ce88d"] ;
64 -> 65 ;
66 [label="bin_5 <= 0.5\ngini = 0.1896\nsamples = 482\nvalue = [4, 679, 76]\nclass = 1", fillcolor="#50e890"] ;
65 -> 66 ;
67 [label="gini = 0.188\nsamples = 480\nvalue = [3, 677, 76]\nclass = 1", fillcolor="#50e890"] ;
66 -> 67 ;
68 [label="gini = 0.4444\nsamples = 2\nvalue = [1, 2, 0]\nclass = 1", fillcolor="#9cf2c0"] ;
66 -> 68 ;
69 [label="bin_5 <= 0.5\ngini = 0.0938\nsamples = 199\nvalue = [2, 291, 13]\nclass = 1", fillcolor="#43e687"] ;
65 -> 69 ;
70 [label="gini = 0.0947\nsamples = 197\nvalue = [2, 288, 13]\nclass = 1", fillcolor="#43e688"] ;
69 -> 70 ;
71 [label="gini = 0.0\nsamples = 2\nvalue = [0, 3, 0]\nclass = 1", fillcolor="#39e581"] ;
69 -> 71 ;
72 [label="bin_5 <= 1.0\ngini = 0.4688\nsamples = 5\nvalue = [3, 5, 0]\nclass = 1", fillcolor="#b0f5cd"] ;
64 -> 72 ;
73 [label="pkt_size_min <= 40.5\ngini = 0.48\nsamples = 3\nvalue = [3, 2, 0]\nclass = 0", fillcolor="#f6d5bd"] ;
72 -> 73 ;
74 [label="gini = 0.0\nsamples = 2\nvalue = [3, 0, 0]\nclass = 0", fillcolor="#e58139"] ;
73 -> 74 ;
75 [label="gini = 0.0\nsamples = 1\nvalue = [0, 2, 0]\nclass = 1", fillcolor="#39e581"] ;
73 -> 75 ;
76 [label="gini = 0.0\nsamples = 2\nvalue = [0, 3, 0]\nclass = 1", fillcolor="#39e581"] ;
72 -> 76 ;
77 [label="flow_iat_min <= 52.5\ngini = 0.2966\nsamples = 721\nvalue = [6, 945, 201]\nclass = 1", fillcolor="#64eb9c"] ;
47 -> 77 ;
78 [label="pkt_size_var_approx <= 1017.0\ngini = 0.5028\nsamples = 189\nvalue = [1, 155, 145]\nclass = 1", fillcolor="#f2fdf7"] ;
77 -> 78 ;
79 [label="pkt_size_var_approx <= 881.0\ngini = 0.5028\nsamples = 172\nvalue = [1, 130, 141]\nclass = 2", fillcolor="#f5f0fd"] ;
78 -> 79 ;
80 [label="gini = 0.0\nsamples = 1\nvalue = [1, 0, 0]\nclass = 0", fillcolor="#e58139"] ;
79 -> 80 ;
81 [label="flow_iat_min <= 37.0\ngini = 0.4992\nsamples = 171\nvalue = [0, 130, 141]\nclass = 2", fillcolor="#f5f0fd"] ;
79 -> 81 ;
82 [label="gini = 0.4923\nsamples = 133\nvalue = [0, 92, 118]\nclass = 2", fillcolor="#e3d3f9"] ;
81 -> 82 ;
83 [label="gini = 0.4698\nsamples = 38\nvalue = [0, 38, 23]\nclass = 1", fillcolor="#b1f5cd"] ;
81 -> 83 ;
84 [label="pkt_size_avg <= 72.5\ngini = 0.2378\nsamples = 17\nvalue = [0, 25, 4]\nclass = 1", fillcolor="#59e995"] ;
78 -> 84 ;
85 [label="bin_3 <= 3.5\ngini = 0.2907\nsamples = 10\nvalue = [0, 14, 3]\nclass = 1", fillcolor="#63eb9c"] ;
84 -> 85 ;
86 [label="gini = 0.2188\nsamples = 9\nvalue = [0, 14, 2]\nclass = 1", fillcolor="#55e993"] ;
85 -> 86 ;
87 [label="gini = 0.0\nsamples = 1\nvalue = [0, 0, 1]\nclass = 2", fillcolor="#8139e5"] ;
85 -> 87 ;
88 [label="flow_iat_min <= 18.0\ngini = 0.1528\nsamples = 7\nvalue = [0, 11, 1]\nclass = 1", fillcolor="#4be78c"] ;
84 -> 88 ;
89 [label="gini = 0.0\nsamples = 1\nvalue = [0, 0, 1]\nclass = 2", fillcolor="#8139e5"] ;
88 -> 89 ;
90 [label="gini = 0.0\nsamples = 6\nvalue = [0, 11, 0]\nclass = 1", fillcolor="#39e581"] ;
88 -> 90 ;
91 [label="bin_3 <= 3.5\ngini = 0.1339\nsamples = 532\nvalue = [5, 790, 56]\nclass = 1", fillcolor="#48e78b"] ;
77 -> 91 ;
92 [label="flow_iat_min <= 77.5\ngini = 0.1127\nsamples = 526\nvalue = [4, 788, 46]\nclass = 1", fillcolor="#46e789"] ;
91 -> 92 ;
93 [label="flow_iat_min <= 74.5\ngini = 0.049\nsamples = 428\nvalue = [3, 662, 14]\nclass = 1", fillcolor="#3ee684"] ;
92 -> 93 ;
94 [label="gini = 0.0291\nsamples = 341\nvalue = [0, 534, 8]\nclass = 1", fillcolor="#3ce583"] ;
93 -> 94 ;
95 [label="gini = 0.1247\nsamples = 87\nvalue = [3, 128, 6]\nclass = 1", fillcolor="#47e78a"] ;
93 -> 95 ;
96 [label="bin_3 <= 2.5\ngini = 0.3315\nsamples = 98\nvalue = [1, 126, 32]\nclass = 1", fillcolor="#6ceca2"] ;
92 -> 96 ;
97 [label="gini = 0.3116\nsamples = 77\nvalue = [1, 106, 24]\nclass = 1", fillcolor="#67eb9e"] ;
96 -> 97 ;
98 [label="gini = 0.4082\nsamples = 21\nvalue = [0, 20, 8]\nclass = 1", fillcolor="#88efb3"] ;
96 -> 98 ;
99 [label="flow_iat_min <= 75.0\ngini = 0.3787\nsamples = 6\nvalue = [1, 2, 10]\nclass = 2", fillcolor="#a36fec"] ;
91 -> 99 ;
100 [label="gini = 0.0\nsamples = 1\nvalue = [0, 2, 0]\nclass = 1", fillcolor="#39e581"] ;
99 -> 100 ;
101 [label="pkt_size_avg <= 61.0\ngini = 0.1653\nsamples = 5\nvalue = [1, 0, 10]\nclass = 2", fillcolor="#8e4de8"] ;
99 -> 101 ;
102 [label="gini = 0.0\nsamples = 1\nvalue = [1, 0, 0]\nclass = 0", fillcolor="#e58139"] ;
101 -> 102 ;
103 [label="gini = 0.0\nsamples = 4\nvalue = [0, 0, 10]\nclass = 2", fillcolor="#8139e5"] ;
101 -> 103 ;
104 [label="pkt_size_var_approx <= 393.0\ngini = 0.5788\nsamples = 5830\nvalue = [1113, 3155, 4994]\nclass = 2", fillcolor="#d9c3f7"] ;
2 -> 104 ;
105 [label="pkt_size_avg <= 45.5\ngini = 0.5719\nsamples = 919\nvalue = [839, 301, 295]\nclass = 0", fillcolor="#f3c3a1"] ;
104 -> 105 ;
106 [label="pkt_size_var_approx <= 8.0\ngini = 0.6654\nsamples = 387\nvalue = [218, 188, 197]\nclass = 0", fillcolor="#fef8f5"] ;
105 -> 106 ;
107 [label="pkt_size_min <= 41.0\ngini = 0.2038\nsamples = 57\nvalue = [9, 1, 78]\nclass = 2", fillcolor="#9152e8"] ;
106 -> 107 ;
108 [label="flow_iat_min <= 64699.5\ngini = 0.229\nsamples = 51\nvalue = [9, 1, 67]\nclass = 2", fillcolor="#9456e9"] ;
107 -> 108 ;
109 [label="flow_iat_min <= 87.5\ngini = 0.2188\nsamples = 4\nvalue = [7, 1, 0]\nclass = 0", fillcolor="#e99355"] ;
108 -> 109 ;
110 [label="gini = 0.0\nsamples = 1\nvalue = [0, 1, 0]\nclass = 1", fillcolor="#39e581"] ;
109 -> 110 ;
111 [label="gini = 0.0\nsamples = 3\nvalue = [7, 0, 0]\nclass = 0", fillcolor="#e58139"] ;
109 -> 111 ;
112 [label="flow_iat_min <= 143659.0\ngini = 0.0563\nsamples = 47\nvalue = [2, 0, 67]\nclass = 2", fillcolor="#853fe6"] ;
108 -> 112 ;
113 [label="gini = 0.0\nsamples = 45\nvalue = [0, 0, 67]\nclass = 2", fillcolor="#8139e5"] ;
112 -> 113 ;
114 [label="gini = 0.0\nsamples = 2\nvalue = [2, 0, 0]\nclass = 0", fillcolor="#e58139"] ;
112 -> 114 ;
115 [label="gini = 0.0\nsamples = 6\nvalue = [0, 0, 11]\nclass = 2", fillcolor="#8139e5"] ;
107 -> 115 ;
116 [label="bin_3 <= 1.5\ngini = 0.6501\nsamples = 330\nvalue = [209, 187, 119]\nclass = 0", fillcolor="#fdf7f2"] ;
106 -> 116 ;
117 [label="flow_iat_min <= 83.0\ngini = 0.3447\nsamples = 42\nvalue = [2, 10, 45]\nclass = 2", fillcolor="#a16cec"] ;
116 -> 117 ;
118 [label="gini = 0.0\nsamples = 1\nvalue = [0, 2, 0]\nclass = 1", fillcolor="#39e581"] ;
117 -> 118 ;
119 [label="pkt_size_max <= 50.0\ngini = 0.3081\nsamples = 41\nvalue = [2, 8, 45]\nclass = 2", fillcolor="#9c63eb"] ;
117 -> 119 ;
120 [label="gini = 0.2563\nsamples = 40\nvalue = [0, 8, 45]\nclass = 2", fillcolor="#975cea"] ;
119 -> 120 ;
121 [label="gini = 0.0\nsamples = 1\nvalue = [2, 0, 0]\nclass = 0", fillcolor="#e58139"] ;
119 -> 121 ;
122 [label="pkt_size_max <= 60.0\ngini = 0.6203\nsamples = 288\nvalue = [207, 177, 74]\nclass = 0", fillcolor="#fcf2ea"] ;
116 -> 122 ;
123 [label="pkt_size_max <= 57.5\ngini = 0.6235\nsamples = 281\nvalue = [196, 177, 74]\nclass = 0", fillcolor="#fdf6f1"] ;
122 -> 123 ;
124 [label="gini = 0.6238\nsamples = 279\nvalue = [196, 173, 74]\nclass = 0", fillcolor="#fdf4ee"] ;
123 -> 124 ;
125 [label="gini = 0.0\nsamples = 2\nvalue = [0, 4, 0]\nclass = 1", fillcolor="#39e581"] ;
123 -> 125 ;
126 [label="gini = 0.0\nsamples = 7\nvalue = [11, 0, 0]\nclass = 0", fillcolor="#e58139"] ;
122 -> 126 ;
127 [label="flow_iat_min <= 145978.0\ngini = 0.4106\nsamples = 532\nvalue = [621, 113, 98]\nclass = 0", fillcolor="#eda673"] ;
105 -> 127 ;
128 [label="pkt_size_min <= 43.0\ngini = 0.3872\nsamples = 514\nvalue = [615, 91, 98]\nclass = 0", fillcolor="#eca36e"] ;
127 -> 128 ;
129 [label="flow_iat_min <= 5714.5\ngini = 0.3628\nsamples = 499\nvalue = [611, 91, 78]\nclass = 0", fillcolor="#eba06a"] ;
128 -> 129 ;
130 [label="pkt_size_var_approx <= 358.0\ngini = 0.384\nsamples = 455\nvalue = [544, 90, 75]\nclass = 0", fillcolor="#eca36e"] ;
129 -> 130 ;
131 [label="gini = 0.3657\nsamples = 423\nvalue = [516, 86, 59]\nclass = 0", fillcolor="#eca16b"] ;
130 -> 131 ;
132 [label="gini = 0.5417\nsamples = 32\nvalue = [28, 4, 16]\nclass = 0", fillcolor="#f5d0b5"] ;
130 -> 132 ;
133 [label="bin_3 <= 3.5\ngini = 0.1075\nsamples = 44\nvalue = [67, 1, 3]\nclass = 0", fillcolor="#e78845"] ;
129 -> 133 ;
134 [label="gini = 0.029\nsamples = 42\nvalue = [67, 1, 0]\nclass = 0", fillcolor="#e5833c"] ;
133 -> 134 ;
135 [label="gini = 0.0\nsamples = 2\nvalue = [0, 0, 3]\nclass = 2", fillcolor="#8139e5"] ;
133 -> 135 ;
136 [label="bin_3 <= 3.5\ngini = 0.2778\nsamples = 15\nvalue = [4, 0, 20]\nclass = 2", fillcolor="#9a61ea"] ;
128 -> 136 ;
137 [label="gini = 0.0\nsamples = 12\nvalue = [0, 0, 20]\nclass = 2", fillcolor="#8139e5"] ;
136 -> 137 ;
138 [label="gini = 0.0\nsamples = 3\nvalue = [4, 0, 0]\nclass = 0", fillcolor="#e58139"] ;
136 -> 138 ;
139 [label="bin_3 <= 1.5\ngini = 0.3367\nsamples = 18\nvalue = [6, 22, 0]\nclass = 1", fillcolor="#6feca3"] ;
127 -> 139 ;
140 [label="gini = 0.0\nsamples = 4\nvalue = [6, 0, 0]\nclass = 0", fillcolor="#e58139"] ;
139 -> 140 ;
141 [label="gini = 0.0\nsamples = 14\nvalue = [0, 22, 0]\nclass = 1", fillcolor="#39e581"] ;
139 -> 141 ;
142 [label="pkt_size_max <= 103.5\ngini = 0.5054\nsamples = 4911\nvalue = [274, 2854, 4699]\nclass = 2", fillcolor="#d0b6f5"] ;
104 -> 142 ;
143 [label="pkt_size_var_approx <= 399.0\ngini = 0.1255\nsamples = 150\nvalue = [212, 6, 9]\nclass = 0", fillcolor="#e78a47"] ;
142 -> 143 ;
144 [label="gini = 0.0\nsamples = 2\nvalue = [0, 0, 2]\nclass = 2", fillcolor="#8139e5"] ;
143 -> 144 ;
145 [label="pkt_size_min <= 36.0\ngini = 0.1105\nsamples = 148\nvalue = [212, 6, 7]\nclass = 0", fillcolor="#e78945"] ;
143 -> 145 ;
146 [label="gini = 0.0\nsamples = 1\nvalue = [0, 1, 0]\nclass = 1", fillcolor="#39e581"] ;
145 -> 146 ;
147 [label="bin_5 <= 1.5\ngini = 0.1028\nsamples = 147\nvalue = [212, 5, 7]\nclass = 0", fillcolor="#e68844"] ;
145 -> 147 ;
148 [label="pkt_size_max <= 56.0\ngini = 0.1907\nsamples = 74\nvalue = [104, 5, 7]\nclass = 0", fillcolor="#e88f4f"] ;
147 -> 148 ;
149 [label="gini = 0.6667\nsamples = 6\nvalue = [2, 2, 2]\nclass = 0", fillcolor="#ffffff"] ;
148 -> 149 ;
150 [label="gini = 0.1374\nsamples = 68\nvalue = [102, 3, 5]\nclass = 0", fillcolor="#e78b48"] ;
148 -> 150 ;
151 [label="gini = 0.0\nsamples = 73\nvalue = [108, 0, 0]\nclass = 0", fillcolor="#e58139"] ;
147 -> 151 ;
152 [label="pkt_size_var_approx <= 644.0\ngini = 0.4787\nsamples = 4761\nvalue = [62, 2848, 4690]\nclass = 2", fillcolor="#ceb2f5"] ;
142 -> 152 ;
153 [label="flow_iat_min <= 84.5\ngini = 0.4376\nsamples = 3381\nvalue = [23, 1705, 3678]\nclass = 2", fillcolor="#bc95f1"] ;
152 -> 153 ;
154 [label="bin_3 <= 2.5\ngini = 0.5014\nsamples = 972\nvalue = [6, 823, 714]\nclass = 1", fillcolor="#e5fcee"] ;
153 -> 154 ;
155 [label="bin_5 <= 1.0\ngini = 0.4997\nsamples = 821\nvalue = [0, 668, 634]\nclass = 1", fillcolor="#f5fef9"] ;
154 -> 155 ;
156 [label="gini = 0.4997\nsamples = 820\nvalue = [0, 667, 634]\nclass = 1", fillcolor="#f5fef9"] ;
155 -> 156 ;
157 [label="gini = 0.0\nsamples = 1\nvalue = [0, 1, 0]\nclass = 1", fillcolor="#39e581"] ;
155 -> 157 ;
158 [label="bin_3 <= 5.5\ngini = 0.4755\nsamples = 151\nvalue = [6, 155, 80]\nclass = 1", fillcolor="#a3f3c4"] ;
154 -> 158 ;
159 [label="gini = 0.4723\nsamples = 150\nvalue = [6, 155, 78]\nclass = 1", fillcolor="#a0f3c3"] ;
158 -> 159 ;
160 [label="gini = 0.0\nsamples = 1\nvalue = [0, 0, 2]\nclass = 2", fillcolor="#8139e5"] ;
158 -> 160 ;
161 [label="pkt_size_min <= 42.0\ngini = 0.3591\nsamples = 2409\nvalue = [17, 882, 2964]\nclass = 2", fillcolor="#a775ed"] ;
153 -> 161 ;
162 [label="pkt_size_avg <= 51.0\ngini = 0.3645\nsamples = 2362\nvalue = [17, 882, 2883]\nclass = 2", fillcolor="#a876ed"] ;
161 -> 162 ;
163 [label="gini = 0.3169\nsamples = 2039\nvalue = [0, 642, 2610]\nclass = 2", fillcolor="#a06aeb"] ;
162 -> 163 ;
164 [label="gini = 0.5286\nsamples = 323\nvalue = [17, 240, 273]\nclass = 2", fillcolor="#f1e8fc"] ;
162 -> 164 ;
165 [label="gini = 0.0\nsamples = 47\nvalue = [0, 0, 81]\nclass = 2", fillcolor="#8139e5"] ;
161 -> 165 ;
166 [label="pkt_size_max <= 107.5\ngini = 0.5155\nsamples = 1380\nvalue = [39, 1143, 1012]\nclass = 1", fillcolor="#e9fcf1"] ;
152 -> 166 ;
167 [label="pkt_size_max <= 104.5\ngini = 0.0713\nsamples = 18\nvalue = [26, 0, 1]\nclass = 0", fillcolor="#e68641"] ;
166 -> 167 ;
168 [label="pkt_size_avg <= 56.5\ngini = 0.18\nsamples = 7\nvalue = [9, 0, 1]\nclass = 0", fillcolor="#e88f4f"] ;
167 -> 168 ;
169 [label="gini = 0.0\nsamples = 1\nvalue = [0, 0, 1]\nclass = 2", fillcolor="#8139e5"] ;
168 -> 169 ;
170 [label="gini = 0.0\nsamples = 6\nvalue = [9, 0, 0]\nclass = 0", fillcolor="#e58139"] ;
168 -> 170 ;
171 [label="gini = 0.0\nsamples = 11\nvalue = [17, 0, 0]\nclass = 0", fillcolor="#e58139"] ;
167 -> 171 ;
172 [label="pkt_size_var_approx <= 826.0\ngini = 0.5041\nsamples = 1362\nvalue = [13, 1143, 1011]\nclass = 1", fillcolor="#e8fcf1"] ;
166 -> 172 ;
173 [label="flow_iat_min <= 88.5\ngini = 0.4263\nsamples = 851\nvalue = [10, 930, 393]\nclass = 1", fillcolor="#8ef0b7"] ;
172 -> 173 ;
174 [label="gini = 0.3097\nsamples = 557\nvalue = [9, 710, 156]\nclass = 1", fillcolor="#66eb9e"] ;
173 -> 174 ;
175 [label="gini = 0.5015\nsamples = 294\nvalue = [1, 220, 237]\nclass = 2", fillcolor="#f6f1fd"] ;
173 -> 175 ;
176 [label="bin_5 <= 0.5\ngini = 0.3857\nsamples = 511\nvalue = [3, 213, 618]\nclass = 2", fillcolor="#ad7eee"] ;
172 -> 176 ;
177 [label="gini = 0.3837\nsamples = 506\nvalue = [3, 209, 613]\nclass = 2", fillcolor="#ac7dee"] ;
176 -> 177 ;
178 [label="gini = 0.4938\nsamples = 5\nvalue = [0, 4, 5]\nclass = 2", fillcolor="#e6d7fa"] ;
176 -> 178 ;
179 [label="pkt_size_avg <= 109.5\ngini = 0.5568\nsamples = 74764\nvalue = [71222, 20810, 26142]\nclass = 0", fillcolor="#f2c19e"] ;
1 -> 179 ;
180 [label="pkt_size_max <= 206.5\ngini = 0.2914\nsamples = 52317\nvalue = [68990, 5009, 8845]\nclass = 0", fillcolor="#ea995e"] ;
179 -> 180 ;
181 [label="pkt_size_max <= 147.5\ngini = 0.1799\nsamples = 47857\nvalue = [68394, 2602, 4767]\nclass = 0", fillcolor="#e88e4e"] ;
180 -> 181 ;
182 [label="pkt_size_max <= 119.5\ngini = 0.6547\nsamples = 2608\nvalue = [1708, 1079, 1316]\nclass = 0", fillcolor="#fbede3"] ;
181 -> 182 ;
183 [label="flow_iat_min <= 27.5\ngini = 0.3315\nsamples = 301\nvalue = [381, 5, 94]\nclass = 0", fillcolor="#eca16c"] ;
182 -> 183 ;
184 [label="bin_3 <= 4.5\ngini = 0.1732\nsamples = 59\nvalue = [9, 0, 85]\nclass = 2", fillcolor="#8e4ee8"] ;
183 -> 184 ;
185 [label="pkt_size_min <= 43.0\ngini = 0.1232\nsamples = 57\nvalue = [6, 0, 85]\nclass = 2", fillcolor="#8a47e7"] ;
184 -> 185 ;
186 [label="gini = 0.0858\nsamples = 56\nvalue = [4, 0, 85]\nclass = 2", fillcolor="#8742e6"] ;
185 -> 186 ;
187 [label="gini = 0.0\nsamples = 1\nvalue = [2, 0, 0]\nclass = 0", fillcolor="#e58139"] ;
185 -> 187 ;
188 [label="gini = 0.0\nsamples = 2\nvalue = [3, 0, 0]\nclass = 0", fillcolor="#e58139"] ;
184 -> 188 ;
189 [label="pkt_size_var_approx <= 1371.0\ngini = 0.0705\nsamples = 242\nvalue = [372, 5, 9]\nclass = 0", fillcolor="#e68640"] ;
183 -> 189 ;
190 [label="pkt_size_avg <= 53.5\ngini = 0.0544\nsamples = 225\nvalue = [350, 5, 5]\nclass = 0", fillcolor="#e6853f"] ;
189 -> 190 ;
191 [label="gini = 0.3457\nsamples = 5\nvalue = [7, 2, 0]\nclass = 0", fillcolor="#eca572"] ;
190 -> 191 ;
192 [label="gini = 0.0448\nsamples = 220\nvalue = [343, 3, 5]\nclass = 0", fillcolor="#e6843e"] ;
190 -> 192 ;
193 [label="pkt_size_max <= 110.5\ngini = 0.2604\nsamples = 17\nvalue = [22, 0, 4]\nclass = 0", fillcolor="#ea985d"] ;
189 -> 193 ;
194 [label="gini = 0.375\nsamples = 2\nvalue = [1, 0, 3]\nclass = 2", fillcolor="#ab7bee"] ;
193 -> 194 ;
195 [label="gini = 0.0868\nsamples = 15\nvalue = [21, 0, 1]\nclass = 0", fillcolor="#e68742"] ;
193 -> 195 ;
196 [label="flow_iat_min <= 34.5\ngini = 0.6642\nsamples = 2307\nvalue = [1327, 1074, 1222]\nclass = 0", fillcolor="#fef9f6"] ;
182 -> 196 ;
197 [label="pkt_size_avg <= 61.5\ngini = 0.1934\nsamples = 611\nvalue = [36, 65, 859]\nclass = 2", fillcolor="#8f4fe8"] ;
196 -> 197 ;
198 [label="flow_iat_min <= 17.5\ngini = 0.6224\nsamples = 16\nvalue = [14, 6, 8]\nclass = 0", fillcolor="#f7d9c4"] ;
197 -> 198 ;
199 [label="gini = 0.4178\nsamples = 8\nvalue = [11, 3, 1]\nclass = 0", fillcolor="#eeab7b"] ;
198 -> 199 ;
200 [label="gini = 0.6036\nsamples = 8\nvalue = [3, 3, 7]\nclass = 2", fillcolor="#cdb0f5"] ;
198 -> 200 ;
201 [label="flow_iat_min <= 9.0\ngini = 0.1617\nsamples = 595\nvalue = [22, 59, 851]\nclass = 2", fillcolor="#8d4be7"] ;
197 -> 201 ;
202 [label="gini = 0.0\nsamples = 3\nvalue = [0, 7, 0]\nclass = 1", fillcolor="#39e581"] ;
201 -> 202 ;
203 [label="gini = 0.1499\nsamples = 592\nvalue = [22, 52, 851]\nclass = 2", fillcolor="#8c4ae7"] ;
201 -> 203 ;
204 [label="pkt_size_min <= 42.0\ngini = 0.6028\nsamples = 1696\nvalue = [1291, 1009, 363]\nclass = 0", fillcolor="#fbeadd"] ;
196 -> 204 ;
205 [label="pkt_size_avg <= 61.5\ngini = 0.5567\nsamples = 1527\nvalue = [1273, 939, 179]\nclass = 0", fillcolor="#f9e2d1"] ;
204 -> 205 ;
206 [label="gini = 0.3157\nsamples = 358\nvalue = [456, 89, 17]\nclass = 0", fillcolor="#eb9d65"] ;
205 -> 206 ;
207 [label="gini = 0.5766\nsamples = 1169\nvalue = [817, 850, 162]\nclass = 1", fillcolor="#f9fefb"] ;
205 -> 207 ;
208 [label="pkt_size_min <= 45.5\ngini = 0.4718\nsamples = 169\nvalue = [18, 70, 184]\nclass = 2", fillcolor="#b88ff0"] ;
204 -> 208 ;
209 [label="gini = 0.3993\nsamples = 159\nvalue = [0, 70, 184]\nclass = 2", fillcolor="#b184ef"] ;
208 -> 209 ;
210 [label="gini = 0.0\nsamples = 10\nvalue = [18, 0, 0]\nclass = 0", fillcolor="#e58139"] ;
208 -> 210 ;
211 [label="flow_iat_min <= 30.5\ngini = 0.1312\nsamples = 45249\nvalue = [66686, 1523, 3451]\nclass = 0", fillcolor="#e78a47"] ;
181 -> 211 ;
212 [label="pkt_size_max <= 149.5\ngini = 0.5057\nsamples = 2523\nvalue = [1530, 116, 2372]\nclass = 2", fillcolor="#d4bcf6"] ;
211 -> 212 ;
213 [label="pkt_size_avg <= 82.5\ngini = 0.3085\nsamples = 341\nvalue = [452, 7, 97]\nclass = 0", fillcolor="#eb9e66"] ;
212 -> 213 ;
214 [label="flow_iat_min <= 24.5\ngini = 0.4199\nsamples = 153\nvalue = [176, 6, 64]\nclass = 0", fillcolor="#efb185"] ;
213 -> 214 ;
215 [label="gini = 0.4751\nsamples = 101\nvalue = [102, 3, 55]\nclass = 0", fillcolor="#f3c7a6"] ;
214 -> 215 ;
216 [label="gini = 0.2474\nsamples = 52\nvalue = [74, 3, 9]\nclass = 0", fillcolor="#e99558"] ;
214 -> 216 ;
217 [label="pkt_size_max <= 148.5\ngini = 0.196\nsamples = 188\nvalue = [276, 1, 33]\nclass = 0", fillcolor="#e89051"] ;
213 -> 217 ;
218 [label="gini = 0.3084\nsamples = 70\nvalue = [102, 0, 24]\nclass = 0", fillcolor="#eb9f68"] ;
217 -> 218 ;
219 [label="gini = 0.1033\nsamples = 118\nvalue = [174, 1, 9]\nclass = 0", fillcolor="#e68844"] ;
217 -> 219 ;
220 [label="bin_5 <= 0.5\ngini = 0.4702\nsamples = 2182\nvalue = [1078, 109, 2275]\nclass = 2", fillcolor="#c09cf2"] ;
212 -> 220 ;
221 [label="flow_iat_min <= 24.5\ngini = 0.4259\nsamples = 1507\nvalue = [609, 82, 1722]\nclass = 2", fillcolor="#b185ef"] ;
220 -> 221 ;
222 [label="gini = 0.3615\nsamples = 1184\nvalue = [375, 55, 1471]\nclass = 2", fillcolor="#a571ec"] ;
221 -> 222 ;
223 [label="gini = 0.548\nsamples = 323\nvalue = [234, 27, 251]\nclass = 2", fillcolor="#f7f3fd"] ;
221 -> 223 ;
224 [label="pkt_size_avg <= 85.5\ngini = 0.5215\nsamples = 675\nvalue = [469, 27, 553]\nclass = 2", fillcolor="#ede2fb"] ;
220 -> 224 ;
225 [label="gini = 0.4236\nsamples = 333\nvalue = [137, 12, 366]\nclass = 2", fillcolor="#b387ef"] ;
224 -> 225 ;
226 [label="gini = 0.49\nsamples = 342\nvalue = [332, 15, 187]\nclass = 0", fillcolor="#f4caac"] ;
224 -> 226 ;
227 [label="pkt_size_var_approx <= 2555.0\ngini = 0.0715\nsamples = 42726\nvalue = [65156, 1407, 1079]\nclass = 0", fillcolor="#e68640"] ;
211 -> 227 ;
228 [label="flow_iat_min <= 70.5\ngini = 0.0439\nsamples = 31476\nvalue = [48722, 836, 277]\nclass = 0", fillcolor="#e6843d"] ;
227 -> 228 ;
229 [label="flow_iat_min <= 57.5\ngini = 0.3369\nsamples = 620\nvalue = [795, 102, 94]\nclass = 0", fillcolor="#eb9d65"] ;
228 -> 229 ;
230 [label="gini = 0.2861\nsamples = 491\nvalue = [659, 36, 94]\nclass = 0", fillcolor="#ea995e"] ;
229 -> 230 ;
231 [label="gini = 0.44\nsamples = 129\nvalue = [136, 66, 0]\nclass = 0", fillcolor="#f2be99"] ;
229 -> 231 ;
232 [label="pkt_size_avg <= 72.5\ngini = 0.037\nsamples = 30856\nvalue = [47927, 734, 183]\nclass = 0", fillcolor="#e5833d"] ;
228 -> 232 ;
233 [label="gini = 0.1484\nsamples = 1691\nvalue = [2443, 168, 43]\nclass = 0", fillcolor="#e78c4a"] ;
232 -> 233 ;
234 [label="gini = 0.0302\nsamples = 29165\nvalue = [45484, 566, 140]\nclass = 0", fillcolor="#e5833c"] ;
232 -> 234 ;
235 [label="bin_3 <= 2.5\ngini = 0.1452\nsamples = 11250\nvalue = [16434, 571, 802]\nclass = 0", fillcolor="#e78b49"] ;
227 -> 235 ;
236 [label="bin_3 <= 1.5\ngini = 0.2339\nsamples = 6255\nvalue = [8632, 521, 766]\nclass = 0", fillcolor="#e99355"] ;
235 -> 236 ;
237 [label="gini = 0.6522\nsamples = 33\nvalue = [22, 18, 13]\nclass = 0", fillcolor="#fcf1e8"] ;
236 -> 237 ;
238 [label="gini = 0.23\nsamples = 6222\nvalue = [8610, 503, 753]\nclass = 0", fillcolor="#e99254"] ;
236 -> 238 ;
239 [label="flow_iat_min <= 38.5\ngini = 0.0216\nsamples = 4995\nvalue = [7802, 50, 36]\nclass = 0", fillcolor="#e5823b"] ;
235 -> 239 ;
240 [label="gini = 0.4483\nsamples = 37\nvalue = [37, 0, 19]\nclass = 0", fillcolor="#f2c29f"] ;
239 -> 240 ;
241 [label="gini = 0.017\nsamples = 4958\nvalue = [7765, 50, 17]\nclass = 0", fillcolor="#e5823b"] ;
239 -> 241 ;
242 [label="pkt_size_var_approx <= 11728.0\ngini = 0.5457\nsamples = 4460\nvalue = [596, 2407, 4078]\nclass = 2", fillcolor="#d2b8f6"] ;
180 -> 242 ;
243 [label="pkt_size_avg <= 88.5\ngini = 0.4979\nsamples = 3774\nvalue = [595, 1443, 3931]\nclass = 2", fillcolor="#ba92f1"] ;
242 -> 243 ;
244 [label="flow_iat_min <= 55.0\ngini = 0.6221\nsamples = 647\nvalue = [213, 293, 505]\nclass = 2", fillcolor="#dac5f7"] ;
243 -> 244 ;
245 [label="pkt_size_min <= 36.0\ngini = 0.2924\nsamples = 121\nvalue = [8, 23, 152]\nclass = 2", fillcolor="#995fea"] ;
244 -> 245 ;
246 [label="gini = 0.0\nsamples = 5\nvalue = [5, 0, 0]\nclass = 0", fillcolor="#e58139"] ;
245 -> 246 ;
247 [label="pkt_size_avg <= 75.5\ngini = 0.2538\nsamples = 116\nvalue = [3, 23, 152]\nclass = 2", fillcolor="#965ae9"] ;
245 -> 247 ;
248 [label="gini = 0.0\nsamples = 6\nvalue = [0, 10, 0]\nclass = 1", fillcolor="#39e581"] ;
247 -> 248 ;
249 [label="gini = 0.1751\nsamples = 110\nvalue = [3, 13, 152]\nclass = 2", fillcolor="#8e4de8"] ;
247 -> 249 ;
250 [label="pkt_size_var_approx <= 3012.0\ngini = 0.6506\nsamples = 526\nvalue = [205, 270, 353]\nclass = 2", fillcolor="#ece2fb"] ;
244 -> 250 ;
251 [label="pkt_size_var_approx <= 2880.0\ngini = 0.3914\nsamples = 151\nvalue = [42, 18, 188]\nclass = 2", fillcolor="#a673ed"] ;
250 -> 251 ;
252 [label="gini = 0.5729\nsamples = 62\nvalue = [39, 9, 50]\nclass = 2", fillcolor="#e8dafa"] ;
251 -> 252 ;
253 [label="gini = 0.1496\nsamples = 89\nvalue = [3, 9, 138]\nclass = 2", fillcolor="#8c4ae7"] ;
251 -> 253 ;
254 [label="pkt_size_avg <= 85.5\ngini = 0.6513\nsamples = 375\nvalue = [163, 252, 165]\nclass = 1", fillcolor="#d5fae5"] ;
250 -> 254 ;
255 [label="gini = 0.5823\nsamples = 209\nvalue = [31, 151, 131]\nclass = 1", fillcolor="#e9fcf1"] ;
254 -> 255 ;
256 [label="gini = 0.5963\nsamples = 166\nvalue = [132, 101, 34]\nclass = 0", fillcolor="#fae7da"] ;
254 -> 256 ;
257 [label="pkt_size_max <= 279.5\ngini = 0.4628\nsamples = 3127\nvalue = [382, 1150, 3426]\nclass = 2", fillcolor="#b489ef"] ;
243 -> 257 ;
258 [label="pkt_size_var_approx <= 5273.0\ngini = 0.6277\nsamples = 1169\nvalue = [324, 814, 708]\nclass = 1", fillcolor="#edfdf3"] ;
257 -> 258 ;
259 [label="bin_3 <= 2.5\ngini = 0.6346\nsamples = 889\nvalue = [302, 655, 445]\nclass = 1", fillcolor="#d4f9e3"] ;
258 -> 259 ;
260 [label="gini = 0.5752\nsamples = 668\nvalue = [125, 575, 352]\nclass = 1", fillcolor="#c0f7d7"] ;
259 -> 260 ;
261 [label="gini = 0.6214\nsamples = 221\nvalue = [177, 80, 93]\nclass = 0", fillcolor="#f7d6be"] ;
259 -> 261 ;
262 [label="pkt_size_avg <= 99.5\ngini = 0.5184\nsamples = 280\nvalue = [22, 159, 263]\nclass = 2", fillcolor="#d1b7f6"] ;
258 -> 262 ;
263 [label="gini = 0.4054\nsamples = 77\nvalue = [10, 100, 24]\nclass = 1", fillcolor="#76eda8"] ;
262 -> 263 ;
264 [label="gini = 0.3679\nsamples = 203\nvalue = [12, 59, 239]\nclass = 2", fillcolor="#a571ec"] ;
262 -> 264 ;
265 [label="pkt_size_min <= 45.0\ngini = 0.2252\nsamples = 1958\nvalue = [58, 336, 2718]\nclass = 2", fillcolor="#9355e9"] ;
257 -> 265 ;
266 [label="flow_iat_min <= 83.5\ngini = 0.2113\nsamples = 1943\nvalue = [30, 336, 2718]\nclass = 2", fillcolor="#9253e8"] ;
265 -> 266 ;
267 [label="gini = 0.3423\nsamples = 641\nvalue = [12, 209, 807]\nclass = 2", fillcolor="#a36eec"] ;
266 -> 267 ;
268 [label="gini = 0.1322\nsamples = 1302\nvalue = [18, 127, 1911]\nclass = 2", fillcolor="#8a48e7"] ;
266 -> 268 ;
269 [label="gini = 0.0\nsamples = 15\nvalue = [28, 0, 0]\nclass = 0", fillcolor="#e58139"] ;
265 -> 269 ;
270 [label="flow_iat_min <= 92.5\ngini = 0.231\nsamples = 686\nvalue = [1, 964, 147]\nclass = 1", fillcolor="#57e994"] ;
242 -> 270 ;
271 [label="pkt_size_avg <= 100.5\ngini = 0.2161\nsamples = 677\nvalue = [1, 962, 134]\nclass = 1", fillcolor="#55e993"] ;
270 -> 271 ;
272 [label="bin_5 <= 0.5\ngini = 0.0057\nsamples = 432\nvalue = [1, 698, 1]\nclass = 1", fillcolor="#3ae581"] ;
271 -> 272 ;
273 [label="pkt_size_max <= 389.5\ngini = 0.0029\nsamples = 431\nvalue = [0, 698, 1]\nclass = 1", fillcolor="#39e581"] ;
272 -> 273 ;
274 [label="gini = 0.32\nsamples = 3\nvalue = [0, 4, 1]\nclass = 1", fillcolor="#6aeca0"] ;
273 -> 274 ;
275 [label="gini = 0.0\nsamples = 428\nvalue = [0, 694, 0]\nclass = 1", fillcolor="#39e581"] ;
273 -> 275 ;
276 [label="gini = 0.0\nsamples = 1\nvalue = [1, 0, 0]\nclass = 0", fillcolor="#e58139"] ;
272 -> 276 ;
277 [label="pkt_size_max <= 489.0\ngini = 0.4456\nsamples = 245\nvalue = [0, 264, 133]\nclass = 1", fillcolor="#9df2c0"] ;
271 -> 277 ;
278 [label="bin_3 <= 2.5\ngini = 0.1975\nsamples = 179\nvalue = [0, 264, 33]\nclass = 1", fillcolor="#52e891"] ;
277 -> 278 ;
279 [label="gini = 0.1647\nsamples = 161\nvalue = [0, 241, 24]\nclass = 1", fillcolor="#4de88e"] ;
278 -> 279 ;
280 [label="gini = 0.4043\nsamples = 18\nvalue = [0, 23, 9]\nclass = 1", fillcolor="#86efb2"] ;
278 -> 280 ;
281 [label="gini = 0.0\nsamples = 66\nvalue = [0, 0, 100]\nclass = 2", fillcolor="#8139e5"] ;
277 -> 281 ;
282 [label="pkt_size_max <= 405.0\ngini = 0.2311\nsamples = 9\nvalue = [0, 2, 13]\nclass = 2", fillcolor="#9457e9"] ;
270 -> 282 ;
283 [label="gini = 0.0\nsamples = 1\nvalue = [0, 1, 0]\nclass = 1", fillcolor="#39e581"] ;
282 -> 283 ;
284 [label="pkt_size_var_approx <= 12488.0\ngini = 0.1327\nsamples = 8\nvalue = [0, 1, 13]\nclass = 2", fillcolor="#8b48e7"] ;
282 -> 284 ;
285 [label="pkt_size_avg <= 102.5\ngini = 0.375\nsamples = 2\nvalue = [0, 1, 3]\nclass = 2", fillcolor="#ab7bee"] ;
284 -> 285 ;
286 [label="gini = 0.0\nsamples = 1\nvalue = [0, 0, 3]\nclass = 2", fillcolor="#8139e5"] ;
285 -> 286 ;
287 [label="gini = 0.0\nsamples = 1\nvalue = [0, 1, 0]\nclass = 1", fillcolor="#39e581"] ;
285 -> 287 ;
288 [label="gini = 0.0\nsamples = 6\nvalue = [0, 0, 10]\nclass = 2", fillcolor="#8139e5"] ;
284 -> 288 ;
289 [label="pkt_size_var_approx <= 80162.0\ngini = 0.5563\nsamples = 22447\nvalue = [2232, 15801, 17297]\nclass = 2", fillcolor="#f5f0fd"] ;
179 -> 289 ;
290 [label="flow_iat_min <= 123.5\ngini = 0.5281\nsamples = 15105\nvalue = [1006, 13200, 9592]\nclass = 1", fillcolor="#cdf8df"] ;
289 -> 290 ;
291 [label="pkt_size_var_approx <= 31162.0\ngini = 0.5248\nsamples = 14834\nvalue = [977, 13166, 9207]\nclass = 1", fillcolor="#c8f8dc"] ;
290 -> 291 ;
292 [label="pkt_size_max <= 204.5\ngini = 0.5542\nsamples = 10000\nvalue = [938, 7245, 7522]\nclass = 2", fillcolor="#fbf9fe"] ;
291 -> 292 ;
293 [label="flow_iat_min <= 29.0\ngini = 0.171\nsamples = 572\nvalue = [800, 49, 32]\nclass = 0", fillcolor="#e88d4c"] ;
292 -> 293 ;
294 [label="pkt_size_max <= 155.0\ngini = 0.2022\nsamples = 25\nvalue = [3, 1, 32]\nclass = 2", fillcolor="#9051e8"] ;
293 -> 294 ;
295 [label="gini = 0.0\nsamples = 1\nvalue = [1, 0, 0]\nclass = 0", fillcolor="#e58139"] ;
294 -> 295 ;
296 [label="gini = 0.16\nsamples = 24\nvalue = [2, 1, 32]\nclass = 2", fillcolor="#8c4be7"] ;
294 -> 296 ;
297 [label="pkt_size_var_approx <= 1914.0\ngini = 0.1072\nsamples = 547\nvalue = [797, 48, 0]\nclass = 0", fillcolor="#e78945"] ;
293 -> 297 ;
298 [label="gini = 0.0069\nsamples = 180\nvalue = [286, 1, 0]\nclass = 0", fillcolor="#e5813a"] ;
297 -> 298 ;
299 [label="gini = 0.1543\nsamples = 367\nvalue = [511, 47, 0]\nclass = 0", fillcolor="#e78d4b"] ;
297 -> 299 ;
300 [label="pkt_size_avg <= 158.5\ngini = 0.509\nsamples = 9428\nvalue = [138, 7196, 7490]\nclass = 2", fillcolor="#faf7fe"] ;
292 -> 300 ;
301 [label="pkt_size_avg <= 131.5\ngini = 0.4553\nsamples = 6082\nvalue = [132, 6337, 3079]\nclass = 1", fillcolor="#9bf2c0"] ;
300 -> 301 ;
302 [label="gini = 0.52\nsamples = 2834\nvalue = [93, 2115, 2225]\nclass = 2", fillcolor="#f9f6fe"] ;
301 -> 302 ;
303 [label="gini = 0.2908\nsamples = 3248\nvalue = [39, 4222, 854]\nclass = 1", fillcolor="#62ea9b"] ;
301 -> 303 ;
304 [label="pkt_size_avg <= 168.5\ngini = 0.2745\nsamples = 3346\nvalue = [6, 859, 4411]\nclass = 2", fillcolor="#9a60ea"] ;
300 -> 304 ;
305 [label="gini = 0.1847\nsamples = 2962\nvalue = [4, 477, 4195]\nclass = 2", fillcolor="#8f50e8"] ;
304 -> 305 ;
306 [label="gini = 0.465\nsamples = 384\nvalue = [2, 382, 216]\nclass = 1", fillcolor="#a9f4c9"] ;
304 -> 306 ;
307 [label="pkt_size_avg <= 186.5\ngini = 0.3516\nsamples = 4834\nvalue = [39, 5921, 1685]\nclass = 1", fillcolor="#72eda5"] ;
291 -> 307 ;
308 [label="pkt_size_var_approx <= 37342.0\ngini = 0.5042\nsamples = 1757\nvalue = [14, 1317, 1432]\nclass = 2", fillcolor="#f5effd"] ;
307 -> 308 ;
309 [label="pkt_size_avg <= 158.5\ngini = 0.3128\nsamples = 716\nvalue = [4, 916, 215]\nclass = 1", fillcolor="#68eb9f"] ;
308 -> 309 ;
310 [label="gini = 0.2084\nsamples = 532\nvalue = [4, 744, 95]\nclass = 1", fillcolor="#53e892"] ;
309 -> 310 ;
311 [label="gini = 0.4841\nsamples = 184\nvalue = [0, 172, 120]\nclass = 1", fillcolor="#c3f7d9"] ;
309 -> 311 ;
312 [label="pkt_size_var_approx <= 79130.0\ngini = 0.3805\nsamples = 1041\nvalue = [10, 401, 1217]\nclass = 2", fillcolor="#ab7bee"] ;
308 -> 312 ;
313 [label="gini = 0.3399\nsamples = 955\nvalue = [10, 312, 1178]\nclass = 2", fillcolor="#a36fec"] ;
312 -> 313 ;
314 [label="gini = 0.4237\nsamples = 86\nvalue = [0, 89, 39]\nclass = 1", fillcolor="#90f0b8"] ;
312 -> 314 ;
315 [label="bin_3 <= 1.5\ngini = 0.1079\nsamples = 3077\nvalue = [25, 4604, 253]\nclass = 1", fillcolor="#45e789"] ;
307 -> 315 ;
316 [label="pkt_size_avg <= 206.5\ngini = 0.5829\nsamples = 90\nvalue = [19, 50, 80]\nclass = 2", fillcolor="#d9c3f7"] ;
315 -> 316 ;
317 [label="gini = 0.0\nsamples = 16\nvalue = [0, 26, 0]\nclass = 1", fillcolor="#39e581"] ;
316 -> 317 ;
318 [label="gini = 0.515\nsamples = 74\nvalue = [19, 24, 80]\nclass = 2", fillcolor="#b88ff0"] ;
316 -> 318 ;
319 [label="flow_iat_min <= 28.5\ngini = 0.0729\nsamples = 2987\nvalue = [6, 4554, 173]\nclass = 1", fillcolor="#41e686"] ;
315 -> 319 ;
320 [label="gini = 0.1935\nsamples = 244\nvalue = [0, 345, 42]\nclass = 1", fillcolor="#51e890"] ;
319 -> 320 ;
321 [label="gini = 0.0611\nsamples = 2743\nvalue = [6, 4209, 131]\nclass = 1", fillcolor="#3fe685"] ;
319 -> 321 ;
322 [label="pkt_size_max <= 271.5\ngini = 0.2515\nsamples = 271\nvalue = [29, 34, 385]\nclass = 2", fillcolor="#9457e9"] ;
290 -> 322 ;
323 [label="pkt_size_max <= 137.0\ngini = 0.3457\nsamples = 8\nvalue = [7, 2, 0]\nclass = 0", fillcolor="#eca572"] ;
322 -> 323 ;
324 [label="gini = 0.0\nsamples = 1\nvalue = [0, 1, 0]\nclass = 1", fillcolor="#39e581"] ;
323 -> 324 ;
325 [label="pkt_size_var_approx <= 5008.0\ngini = 0.2188\nsamples = 7\nvalue = [7, 1, 0]\nclass = 0", fillcolor="#e99355"] ;
323 -> 325 ;
326 [label="gini = 0.0\nsamples = 6\nvalue = [7, 0, 0]\nclass = 0", fillcolor="#e58139"] ;
325 -> 326 ;
327 [label="gini = 0.0\nsamples = 1\nvalue = [0, 1, 0]\nclass = 1", fillcolor="#39e581"] ;
325 -> 327 ;
328 [label="pkt_size_min <= 45.0\ngini = 0.2231\nsamples = 263\nvalue = [22, 32, 385]\nclass = 2", fillcolor="#9253e8"] ;
322 -> 328 ;
329 [label="flow_iat_min <= 801.5\ngini = 0.1955\nsamples = 256\nvalue = [14, 32, 385]\nclass = 2", fillcolor="#9050e8"] ;
328 -> 329 ;
330 [label="pkt_size_avg <= 204.0\ngini = 0.1362\nsamples = 241\nvalue = [0, 30, 378]\nclass = 2", fillcolor="#8b49e7"] ;
329 -> 330 ;
331 [label="gini = 0.0898\nsamples = 226\nvalue = [0, 18, 364]\nclass = 2", fillcolor="#8743e6"] ;
330 -> 331 ;
332 [label="gini = 0.497\nsamples = 15\nvalue = [0, 12, 14]\nclass = 2", fillcolor="#ede3fb"] ;
330 -> 332 ;
333 [label="pkt_size_max <= 462.0\ngini = 0.5293\nsamples = 15\nvalue = [14, 2, 7]\nclass = 0", fillcolor="#f4c8a8"] ;
329 -> 333 ;
334 [label="gini = 0.4938\nsamples = 5\nvalue = [2, 1, 6]\nclass = 2", fillcolor="#b78ef0"] ;
333 -> 334 ;
335 [label="gini = 0.2551\nsamples = 10\nvalue = [12, 1, 1]\nclass = 0", fillcolor="#e99457"] ;
333 -> 335 ;
336 [label="gini = 0.0\nsamples = 7\nvalue = [8, 0, 0]\nclass = 0", fillcolor="#e58139"] ;
328 -> 336 ;
337 [label="pkt_size_avg <= 687.5\ngini = 0.4914\nsamples = 7342\nvalue = [1226, 2601, 7705]\nclass = 2", fillcolor="#b78ef0"] ;
289 -> 337 ;
338 [label="pkt_size_max <= 1499.5\ngini = 0.4249\nsamples = 6673\nvalue = [441, 2516, 7538]\nclass = 2", fillcolor="#b082ef"] ;
337 -> 338 ;
339 [label="pkt_size_var_approx <= 188446.0\ngini = 0.5255\nsamples = 3211\nvalue = [292, 1785, 2964]\nclass = 2", fillcolor="#d1b7f6"] ;
338 -> 339 ;
340 [label="pkt_size_var_approx <= 153725.0\ngini = 0.3312\nsamples = 1709\nvalue = [204, 322, 2179]\nclass = 2", fillcolor="#9d65eb"] ;
339 -> 340 ;
341 [label="pkt_size_max <= 1105.0\ngini = 0.2463\nsamples = 1247\nvalue = [48, 225, 1679]\nclass = 2", fillcolor="#9558e9"] ;
340 -> 341 ;
342 [label="gini = 0.2164\nsamples = 1195\nvalue = [27, 201, 1650]\nclass = 2", fillcolor="#9254e9"] ;
341 -> 342 ;
343 [label="gini = 0.6607\nsamples = 52\nvalue = [21, 24, 29]\nclass = 2", fillcolor="#f2ebfc"] ;
341 -> 343 ;
344 [label="pkt_size_max <= 1306.5\ngini = 0.4996\nsamples = 462\nvalue = [156, 97, 500]\nclass = 2", fillcolor="#b68df0"] ;
340 -> 344 ;
345 [label="gini = 0.1024\nsamples = 237\nvalue = [5, 16, 371]\nclass = 2", fillcolor="#8844e6"] ;
344 -> 345 ;
346 [label="gini = 0.647\nsamples = 225\nvalue = [151, 81, 129]\nclass = 0", fillcolor="#fdf3ec"] ;
344 -> 346 ;
347 [label="bin_3 <= 0.5\ngini = 0.4934\nsamples = 1502\nvalue = [88, 1463, 785]\nclass = 1", fillcolor="#a8f4c8"] ;
339 -> 347 ;
348 [label="pkt_size_avg <= 682.0\ngini = 0.3522\nsamples = 30\nvalue = [32, 1, 8]\nclass = 0", fillcolor="#eca36f"] ;
347 -> 348 ;
349 [label="gini = 0.3024\nsamples = 29\nvalue = [32, 1, 6]\nclass = 0", fillcolor="#eb9c63"] ;
348 -> 349 ;
350 [label="gini = 0.0\nsamples = 1\nvalue = [0, 0, 2]\nclass = 2", fillcolor="#8139e5"] ;
348 -> 350 ;
351 [label="pkt_size_max <= 1416.0\ngini = 0.479\nsamples = 1472\nvalue = [56, 1462, 777]\nclass = 1", fillcolor="#a6f3c6"] ;
347 -> 351 ;
352 [label="gini = 0.0904\nsamples = 96\nvalue = [2, 5, 142]\nclass = 2", fillcolor="#8743e6"] ;
351 -> 352 ;
353 [label="gini = 0.4509\nsamples = 1376\nvalue = [54, 1457, 635]\nclass = 1", fillcolor="#93f1ba"] ;
351 -> 353 ;
354 [label="flow_iat_min <= 35.5\ngini = 0.278\nsamples = 3462\nvalue = [149, 731, 4574]\nclass = 2", fillcolor="#985eea"] ;
338 -> 354 ;
355 [label="flow_iat_min <= 18.5\ngini = 0.4977\nsamples = 941\nvalue = [6, 667, 836]\nclass = 2", fillcolor="#e6d7fa"] ;
354 -> 355 ;
356 [label="flow_iat_min <= 17.5\ngini = 0.1539\nsamples = 315\nvalue = [0, 42, 458]\nclass = 2", fillcolor="#8d4be7"] ;
355 -> 356 ;
357 [label="gini = 0.1303\nsamples = 297\nvalue = [0, 33, 438]\nclass = 2", fillcolor="#8a48e7"] ;
356 -> 357 ;
358 [label="gini = 0.4281\nsamples = 18\nvalue = [0, 9, 20]\nclass = 2", fillcolor="#ba92f1"] ;
356 -> 358 ;
359 [label="bin_3 <= 2.5\ngini = 0.4759\nsamples = 626\nvalue = [6, 625, 378]\nclass = 1", fillcolor="#b1f5ce"] ;
355 -> 359 ;
360 [label="gini = 0.4886\nsamples = 485\nvalue = [4, 457, 316]\nclass = 1", fillcolor="#c2f7d8"] ;
359 -> 360 ;
361 [label="gini = 0.4041\nsamples = 141\nvalue = [2, 168, 62]\nclass = 1", fillcolor="#84efb0"] ;
359 -> 361 ;
362 [label="pkt_size_var_approx <= 501252.0\ngini = 0.1006\nsamples = 2521\nvalue = [143, 64, 3738]\nclass = 2", fillcolor="#8844e6"] ;
354 -> 362 ;
363 [label="pkt_size_max <= 1894.0\ngini = 0.0561\nsamples = 2458\nvalue = [51, 59, 3728]\nclass = 2", fillcolor="#853fe6"] ;
362 -> 363 ;
364 [label="gini = 0.0507\nsamples = 2452\nvalue = [40, 59, 3728]\nclass = 2", fillcolor="#843ee6"] ;
363 -> 364 ;
365 [label="gini = 0.0\nsamples = 6\nvalue = [11, 0, 0]\nclass = 0", fillcolor="#e58139"] ;
363 -> 365 ;
366 [label="pkt_size_avg <= 418.0\ngini = 0.2498\nsamples = 63\nvalue = [92, 5, 10]\nclass = 0", fillcolor="#e99458"] ;
362 -> 366 ;
367 [label="gini = 0.0\nsamples = 47\nvalue = [82, 0, 0]\nclass = 0", fillcolor="#e58139"] ;
366 -> 367 ;
368 [label="gini = 0.64\nsamples = 16\nvalue = [10, 5, 10]\nclass = 0", fillcolor="#ffffff"] ;
366 -> 368 ;
369 [label="pkt_size_max <= 3125.5\ngini = 0.3943\nsamples = 669\nvalue = [785, 85, 167]\nclass = 0", fillcolor="#eda572"] ;
337 -> 369 ;
370 [label="bin_3 <= 0.5\ngini = 0.3052\nsamples = 618\nvalue = [785, 65, 103]\nclass = 0", fillcolor="#ea9a60"] ;
369 -> 370 ;
371 [label="flow_iat_min <= 111.5\ngini = 0.223\nsamples = 454\nvalue = [621, 39, 48]\nclass = 0", fillcolor="#e89253"] ;
370 -> 371 ;
372 [label="pkt_size_var_approx <= 923880.0\ngini = 0.1355\nsamples = 299\nvalue = [440, 22, 12]\nclass = 0", fillcolor="#e78a48"] ;
371 -> 372 ;
373 [label="gini = 0.226\nsamples = 142\nvalue = [195, 20, 8]\nclass = 0", fillcolor="#e99254"] ;
372 -> 373 ;
374 [label="gini = 0.0469\nsamples = 157\nvalue = [245, 2, 4]\nclass = 0", fillcolor="#e6843e"] ;
372 -> 374 ;
375 [label="flow_iat_min <= 222.5\ngini = 0.3727\nsamples = 155\nvalue = [181, 17, 36]\nclass = 0", fillcolor="#eca36e"] ;
371 -> 375 ;
376 [label="gini = 0.4652\nsamples = 101\nvalue = [110, 14, 35]\nclass = 0", fillcolor="#efb387"] ;
375 -> 376 ;
377 [label="gini = 0.102\nsamples = 54\nvalue = [71, 3, 1]\nclass = 0", fillcolor="#e68844"] ;
375 -> 377 ;
378 [label="flow_iat_min <= 56.5\ngini = 0.4903\nsamples = 164\nvalue = [164, 26, 55]\nclass = 0", fillcolor="#f0b78d"] ;
370 -> 378 ;
379 [label="pkt_size_var_approx <= 536697.0\ngini = 0.2402\nsamples = 55\nvalue = [70, 9, 2]\nclass = 0", fillcolor="#e99457"] ;
378 -> 379 ;
380 [label="gini = 0.4362\nsamples = 21\nvalue = [19, 9, 0]\nclass = 0", fillcolor="#f1bd97"] ;
379 -> 380 ;
381 [label="gini = 0.0726\nsamples = 34\nvalue = [51, 0, 2]\nclass = 0", fillcolor="#e68641"] ;
379 -> 381 ;
382 [label="bin_3 <= 3.5\ngini = 0.5563\nsamples = 109\nvalue = [94, 17, 53]\nclass = 0", fillcolor="#f5d0b6"] ;
378 -> 382 ;
383 [label="gini = 0.5493\nsamples = 107\nvalue = [93, 15, 53]\nclass = 0", fillcolor="#f5d0b6"] ;
382 -> 383 ;
384 [label="gini = 0.4444\nsamples = 2\nvalue = [1, 2, 0]\nclass = 1", fillcolor="#9cf2c0"] ;
382 -> 384 ;
385 [label="pkt_size_avg <= 1688.5\ngini = 0.3628\nsamples = 51\nvalue = [0, 20, 64]\nclass = 2", fillcolor="#a877ed"] ;
369 -> 385 ;
386 [label="pkt_size_var_approx <= 4059812.0\ngini = 0.4444\nsamples = 33\nvalue = [0, 17, 34]\nclass = 2", fillcolor="#c09cf2"] ;
385 -> 386 ;
387 [label="pkt_size_var_approx <= 2757504.0\ngini = 0.4983\nsamples = 23\nvalue = [0, 16, 18]\nclass = 2", fillcolor="#f1e9fc"] ;
386 -> 387 ;
388 [label="gini = 0.4234\nsamples = 15\nvalue = [0, 7, 16]\nclass = 2", fillcolor="#b890f0"] ;
387 -> 388 ;
389 [label="gini = 0.2975\nsamples = 8\nvalue = [0, 9, 2]\nclass = 1", fillcolor="#65eb9d"] ;
387 -> 389 ;
390 [label="pkt_size_max <= 7290.0\ngini = 0.1107\nsamples = 10\nvalue = [0, 1, 16]\nclass = 2", fillcolor="#8945e7"] ;
386 -> 390 ;
391 [label="gini = 0.2188\nsamples = 5\nvalue = [0, 1, 7]\nclass = 2", fillcolor="#9355e9"] ;
390 -> 391 ;
392 [label="gini = 0.0\nsamples = 5\nvalue = [0, 0, 9]\nclass = 2", fillcolor="#8139e5"] ;
390 -> 392 ;
393 [label="flow_iat_min <= 140.0\ngini = 0.1653\nsamples = 18\nvalue = [0, 3, 30]\nclass = 2", fillcolor="#8e4de8"] ;
385 -> 393 ;
394 [label="pkt_size_var_approx <= 9344561.0\ngini = 0.1172\nsamples = 17\nvalue = [0, 2, 30]\nclass = 2", fillcolor="#8946e7"] ;
393 -> 394 ;
395 [label="gini = 0.2311\nsamples = 8\nvalue = [0, 2, 13]\nclass = 2", fillcolor="#9457e9"] ;
394 -> 395 ;
396 [label="gini = 0.0\nsamples = 9\nvalue = [0, 0, 17]\nclass = 2", fillcolor="#8139e5"] ;
394 -> 396 ;
397 [label="gini = 0.0\nsamples = 1\nvalue = [0, 1, 0]\nclass = 1", fillcolor="#39e581"] ;
393 -> 397 ;
398 [label="flow_iat_min <= 169.5\ngini = 0.5537\nsamples = 77859\nvalue = [16272, 73223, 33445]\nclass = 1", fillcolor="#a7f3c7"] ;
0 -> 398 [labeldistance=2.5, labelangle=-45, headlabel="False"] ;
399 [label="pkt_size_var_approx <= 4466.0\ngini = 0.4001\nsamples = 57176\nvalue = [12368, 68272, 9833]\nclass = 1", fillcolor="#71eca5"] ;
398 -> 399 ;
400 [label="pkt_size_avg <= 87.5\ngini = 0.585\nsamples = 16052\nvalue = [11508, 11349, 2540]\nclass = 0", fillcolor="#fffefd"] ;
399 -> 400 ;
401 [label="pkt_size_max <= 157.5\ngini = 0.4188\nsamples = 7324\nvalue = [2041, 8552, 1017]\nclass = 1", fillcolor="#78eda9"] ;
400 -> 401 ;
402 [label="flow_iat_min <= 88.5\ngini = 0.3202\nsamples = 6176\nvalue = [861, 7955, 958]\nclass = 1", fillcolor="#62ea9b"] ;
401 -> 402 ;
403 [label="bin_3 <= 2.5\ngini = 0.6048\nsamples = 1695\nvalue = [699, 1410, 535]\nclass = 1", fillcolor="#b7f5d1"] ;
402 -> 403 ;
404 [label="pkt_size_max <= 131.5\ngini = 0.291\nsamples = 253\nvalue = [321, 48, 17]\nclass = 0", fillcolor="#ea995f"] ;
403 -> 404 ;
405 [label="pkt_size_var_approx <= 520.0\ngini = 0.2283\nsamples = 202\nvalue = [269, 26, 13]\nclass = 0", fillcolor="#e99254"] ;
404 -> 405 ;
406 [label="gini = 0.1759\nsamples = 152\nvalue = [205, 21, 1]\nclass = 0", fillcolor="#e88e4e"] ;
405 -> 406 ;
407 [label="gini = 0.3499\nsamples = 50\nvalue = [64, 5, 12]\nclass = 0", fillcolor="#eba06a"] ;
405 -> 407 ;
408 [label="pkt_size_max <= 154.0\ngini = 0.4734\nsamples = 51\nvalue = [52, 22, 4]\nclass = 0", fillcolor="#f1bc95"] ;
404 -> 408 ;
409 [label="gini = 0.5254\nsamples = 43\nvalue = [38, 22, 4]\nclass = 0", fillcolor="#f5cfb4"] ;
408 -> 409 ;
410 [label="gini = 0.0\nsamples = 8\nvalue = [14, 0, 0]\nclass = 0", fillcolor="#e58139"] ;
408 -> 410 ;
411 [label="pkt_size_var_approx <= 631.0\ngini = 0.5555\nsamples = 1442\nvalue = [378, 1362, 518]\nclass = 1", fillcolor="#9ff2c2"] ;
403 -> 411 ;
412 [label="pkt_size_max <= 94.0\ngini = 0.6148\nsamples = 378\nvalue = [253, 266, 90]\nclass = 1", fillcolor="#f8fefa"] ;
411 -> 412 ;
413 [label="gini = 0.6211\nsamples = 320\nvalue = [225, 202, 82]\nclass = 0", fillcolor="#fdf6f0"] ;
412 -> 413 ;
414 [label="gini = 0.5056\nsamples = 58\nvalue = [28, 64, 8]\nclass = 1", fillcolor="#9cf2c0"] ;
412 -> 414 ;
415 [label="pkt_size_var_approx <= 1836.0\ngini = 0.4851\nsamples = 1064\nvalue = [125, 1096, 428]\nclass = 1", fillcolor="#93f1ba"] ;
411 -> 415 ;
416 [label="gini = 0.4607\nsamples = 1011\nvalue = [78, 1067, 420]\nclass = 1", fillcolor="#8ff0b8"] ;
415 -> 416 ;
417 [label="gini = 0.5587\nsamples = 53\nvalue = [47, 29, 8]\nclass = 0", fillcolor="#f6d6be"] ;
415 -> 417 ;
418 [label="pkt_size_max <= 116.5\ngini = 0.1533\nsamples = 4481\nvalue = [162, 6545, 423]\nclass = 1", fillcolor="#4ae78c"] ;
402 -> 418 ;
419 [label="pkt_size_min <= 63.0\ngini = 0.055\nsamples = 3888\nvalue = [72, 6022, 102]\nclass = 1", fillcolor="#3fe685"] ;
418 -> 419 ;
420 [label="bin_3 <= 2.5\ngini = 0.0329\nsamples = 3841\nvalue = [72, 6022, 30]\nclass = 1", fillcolor="#3ce583"] ;
419 -> 420 ;
421 [label="gini = 0.4844\nsamples = 23\nvalue = [14, 20, 0]\nclass = 1", fillcolor="#c4f7d9"] ;
420 -> 421 ;
422 [label="gini = 0.0286\nsamples = 3818\nvalue = [58, 6002, 30]\nclass = 1", fillcolor="#3ce583"] ;
420 -> 422 ;
423 [label="gini = 0.0\nsamples = 47\nvalue = [0, 0, 72]\nclass = 2", fillcolor="#8139e5"] ;
419 -> 423 ;
424 [label="pkt_size_avg <= 75.5\ngini = 0.559\nsamples = 593\nvalue = [90, 523, 321]\nclass = 1", fillcolor="#bef6d5"] ;
418 -> 424 ;
425 [label="bin_3 <= 3.5\ngini = 0.4536\nsamples = 300\nvalue = [14, 134, 313]\nclass = 2", fillcolor="#ba93f1"] ;
424 -> 425 ;
426 [label="gini = 0.449\nsamples = 11\nvalue = [3, 15, 3]\nclass = 1", fillcolor="#7beeab"] ;
425 -> 426 ;
427 [label="gini = 0.4298\nsamples = 289\nvalue = [11, 119, 310]\nclass = 2", fillcolor="#b489f0"] ;
425 -> 427 ;
428 [label="bin_3 <= 3.5\ngini = 0.2975\nsamples = 293\nvalue = [76, 389, 8]\nclass = 1", fillcolor="#63eb9c"] ;
424 -> 428 ;
429 [label="gini = 0.0741\nsamples = 232\nvalue = [7, 353, 7]\nclass = 1", fillcolor="#41e686"] ;
428 -> 429 ;
430 [label="gini = 0.4608\nsamples = 61\nvalue = [69, 36, 1]\nclass = 0", fillcolor="#f3c4a2"] ;
428 -> 430 ;
431 [label="flow_iat_min <= 58.5\ngini = 0.4802\nsamples = 1148\nvalue = [1180, 597, 59]\nclass = 0", fillcolor="#f3c4a2"] ;
401 -> 431 ;
432 [label="pkt_size_max <= 171.5\ngini = 0.6415\nsamples = 123\nvalue = [83, 75, 41]\nclass = 0", fillcolor="#fdf7f2"] ;
431 -> 432 ;
433 [label="bin_5 <= 0.5\ngini = 0.507\nsamples = 70\nvalue = [30, 72, 10]\nclass = 1", fillcolor="#9af2be"] ;
432 -> 433 ;
434 [label="bin_3 <= 4.5\ngini = 0.3855\nsamples = 60\nvalue = [15, 71, 7]\nclass = 1", fillcolor="#71eca5"] ;
433 -> 434 ;
435 [label="gini = 0.3168\nsamples = 57\nvalue = [9, 71, 7]\nclass = 1", fillcolor="#62ea9b"] ;
434 -> 435 ;
436 [label="gini = 0.0\nsamples = 3\nvalue = [6, 0, 0]\nclass = 0", fillcolor="#e58139"] ;
434 -> 436 ;
437 [label="flow_iat_min <= 25.0\ngini = 0.349\nsamples = 10\nvalue = [15, 1, 3]\nclass = 0", fillcolor="#eca06a"] ;
433 -> 437 ;
438 [label="gini = 0.0\nsamples = 5\nvalue = [12, 0, 0]\nclass = 0", fillcolor="#e58139"] ;
437 -> 438 ;
439 [label="gini = 0.6122\nsamples = 5\nvalue = [3, 1, 3]\nclass = 0", fillcolor="#ffffff"] ;
437 -> 439 ;
440 [label="pkt_size_max <= 174.5\ngini = 0.5007\nsamples = 53\nvalue = [53, 3, 31]\nclass = 0", fillcolor="#f5ceb1"] ;
432 -> 440 ;
441 [label="gini = 0.0\nsamples = 6\nvalue = [0, 0, 9]\nclass = 2", fillcolor="#8139e5"] ;
440 -> 441 ;
442 [label="pkt_size_avg <= 85.5\ngini = 0.4573\nsamples = 47\nvalue = [53, 3, 22]\nclass = 0", fillcolor="#f1b991"] ;
440 -> 442 ;
443 [label="gini = 0.2613\nsamples = 33\nvalue = [45, 1, 7]\nclass = 0", fillcolor="#ea975b"] ;
442 -> 443 ;
444 [label="gini = 0.5312\nsamples = 14\nvalue = [8, 2, 15]\nclass = 2", fillcolor="#cbadf4"] ;
442 -> 444 ;
445 [label="pkt_size_avg <= 84.5\ngini = 0.4491\nsamples = 1025\nvalue = [1097, 522, 18]\nclass = 0", fillcolor="#f2be99"] ;
431 -> 445 ;
446 [label="pkt_size_max <= 172.5\ngini = 0.2902\nsamples = 549\nvalue = [711, 148, 3]\nclass = 0", fillcolor="#ea9c63"] ;
445 -> 446 ;
447 [label="pkt_size_avg <= 82.5\ngini = 0.4366\nsamples = 250\nvalue = [266, 124, 1]\nclass = 0", fillcolor="#f1bc96"] ;
446 -> 447 ;
448 [label="gini = 0.2494\nsamples = 145\nvalue = [193, 33, 0]\nclass = 0", fillcolor="#e9975b"] ;
447 -> 448 ;
449 [label="gini = 0.5001\nsamples = 105\nvalue = [73, 91, 1]\nclass = 1", fillcolor="#d8fae6"] ;
447 -> 449 ;
450 [label="pkt_size_avg <= 73.5\ngini = 0.1047\nsamples = 299\nvalue = [445, 24, 2]\nclass = 0", fillcolor="#e78845"] ;
446 -> 450 ;
451 [label="gini = 0.0\nsamples = 34\nvalue = [60, 0, 0]\nclass = 0", fillcolor="#e58139"] ;
450 -> 451 ;
452 [label="gini = 0.1191\nsamples = 265\nvalue = [385, 24, 2]\nclass = 0", fillcolor="#e78946"] ;
450 -> 452 ;
453 [label="flow_iat_min <= 80.5\ngini = 0.5187\nsamples = 476\nvalue = [386, 374, 15]\nclass = 0", fillcolor="#fefbf9"] ;
445 -> 453 ;
454 [label="bin_3 <= 2.5\ngini = 0.3288\nsamples = 59\nvalue = [78, 19, 1]\nclass = 0", fillcolor="#eca16b"] ;
453 -> 454 ;
455 [label="gini = 0.0\nsamples = 36\nvalue = [58, 0, 0]\nclass = 0", fillcolor="#e58139"] ;
454 -> 455 ;
456 [label="gini = 0.5237\nsamples = 23\nvalue = [20, 19, 1]\nclass = 0", fillcolor="#fef9f6"] ;
454 -> 456 ;
457 [label="bin_3 <= 2.5\ngini = 0.5176\nsamples = 417\nvalue = [308, 355, 14]\nclass = 1", fillcolor="#e6fcef"] ;
453 -> 457 ;
458 [label="gini = 0.0963\nsamples = 87\nvalue = [131, 7, 0]\nclass = 0", fillcolor="#e68844"] ;
457 -> 458 ;
459 [label="gini = 0.4746\nsamples = 330\nvalue = [177, 348, 14]\nclass = 1", fillcolor="#a1f3c3"] ;
457 -> 459 ;
460 [label="pkt_size_max <= 217.5\ngini = 0.4751\nsamples = 8728\nvalue = [9467, 2797, 1523]\nclass = 0", fillcolor="#efb387"] ;
400 -> 460 ;
461 [label="flow_iat_min <= 37.5\ngini = 0.361\nsamples = 7461\nvalue = [9254, 1632, 926]\nclass = 0", fillcolor="#eca16b"] ;
460 -> 461 ;
462 [label="pkt_size_max <= 148.5\ngini = 0.5519\nsamples = 815\nvalue = [463, 106, 722]\nclass = 2", fillcolor="#d8c1f7"] ;
461 -> 462 ;
463 [label="pkt_size_min <= 54.0\ngini = 0.1908\nsamples = 123\nvalue = [182, 11, 10]\nclass = 0", fillcolor="#e88f4f"] ;
462 -> 463 ;
464 [label="flow_iat_min <= 17.5\ngini = 0.355\nsamples = 9\nvalue = [0, 3, 10]\nclass = 2", fillcolor="#a774ed"] ;
463 -> 464 ;
465 [label="gini = 0.0\nsamples = 2\nvalue = [0, 3, 0]\nclass = 1", fillcolor="#39e581"] ;
464 -> 465 ;
466 [label="gini = 0.0\nsamples = 7\nvalue = [0, 0, 10]\nclass = 2", fillcolor="#8139e5"] ;
464 -> 466 ;
467 [label="bin_3 <= 2.5\ngini = 0.0807\nsamples = 114\nvalue = [182, 8, 0]\nclass = 0", fillcolor="#e68742"] ;
463 -> 467 ;
468 [label="gini = 0.32\nsamples = 5\nvalue = [2, 8, 0]\nclass = 1", fillcolor="#6aeca0"] ;
467 -> 468 ;
469 [label="gini = 0.0\nsamples = 109\nvalue = [180, 0, 0]\nclass = 0", fillcolor="#e58139"] ;
467 -> 469 ;
470 [label="bin_3 <= 1.5\ngini = 0.4974\nsamples = 692\nvalue = [281, 95, 712]\nclass = 2", fillcolor="#bc95f1"] ;
462 -> 470 ;
471 [label="pkt_size_max <= 159.0\ngini = 0.3457\nsamples = 58\nvalue = [77, 0, 22]\nclass = 0", fillcolor="#eca572"] ;
470 -> 471 ;
472 [label="gini = 0.0\nsamples = 4\nvalue = [0, 0, 10]\nclass = 2", fillcolor="#8139e5"] ;
471 -> 472 ;
473 [label="gini = 0.2333\nsamples = 54\nvalue = [77, 0, 12]\nclass = 0", fillcolor="#e99558"] ;
471 -> 473 ;
474 [label="pkt_size_var_approx <= 3309.0\ngini = 0.4615\nsamples = 634\nvalue = [204, 95, 690]\nclass = 2", fillcolor="#b184ef"] ;
470 -> 474 ;
475 [label="gini = 0.4271\nsamples = 542\nvalue = [142, 85, 617]\nclass = 2", fillcolor="#aa79ed"] ;
474 -> 475 ;
476 [label="gini = 0.559\nsamples = 92\nvalue = [62, 10, 73]\nclass = 2", fillcolor="#eee5fc"] ;
474 -> 476 ;
477 [label="bin_3 <= 3.5\ngini = 0.2804\nsamples = 6646\nvalue = [8791, 1526, 204]\nclass = 0", fillcolor="#ea995f"] ;
461 -> 477 ;
478 [label="bin_3 <= 0.5\ngini = 0.1904\nsamples = 5161\nvalue = [7285, 656, 191]\nclass = 0", fillcolor="#e88f4f"] ;
477 -> 478 ;
479 [label="pkt_size_avg <= 96.5\ngini = 0.6243\nsamples = 237\nvalue = [93, 183, 89]\nclass = 1", fillcolor="#bdf6d5"] ;
478 -> 479 ;
480 [label="gini = 0.0117\nsamples = 111\nvalue = [1, 169, 0]\nclass = 1", fillcolor="#3ae582"] ;
479 -> 480 ;
481 [label="gini = 0.5639\nsamples = 126\nvalue = [92, 14, 89]\nclass = 0", fillcolor="#fefbf9"] ;
479 -> 481 ;
482 [label="pkt_size_max <= 121.0\ngini = 0.1387\nsamples = 4924\nvalue = [7192, 473, 102]\nclass = 0", fillcolor="#e78b49"] ;
478 -> 482 ;
483 [label="gini = 0.0807\nsamples = 59\nvalue = [0, 91, 4]\nclass = 1", fillcolor="#42e687"] ;
482 -> 483 ;
484 [label="gini = 0.1186\nsamples = 4865\nvalue = [7192, 382, 98]\nclass = 0", fillcolor="#e78946"] ;
482 -> 484 ;
485 [label="pkt_size_min <= 51.5\ngini = 0.47\nsamples = 1485\nvalue = [1506, 870, 13]\nclass = 0", fillcolor="#f4caac"] ;
477 -> 485 ;
486 [label="pkt_size_var_approx <= 3993.0\ngini = 0.0242\nsamples = 296\nvalue = [483, 6, 0]\nclass = 0", fillcolor="#e5833b"] ;
485 -> 486 ;
487 [label="gini = 0.0163\nsamples = 295\nvalue = [483, 4, 0]\nclass = 0", fillcolor="#e5823b"] ;
486 -> 487 ;
488 [label="gini = 0.0\nsamples = 1\nvalue = [0, 2, 0]\nclass = 1", fillcolor="#39e581"] ;
486 -> 488 ;
489 [label="pkt_size_max <= 181.5\ngini = 0.5033\nsamples = 1189\nvalue = [1023, 864, 13]\nclass = 0", fillcolor="#fbece1"] ;
485 -> 489 ;
490 [label="gini = 0.3745\nsamples = 712\nvalue = [859, 279, 4]\nclass = 0", fillcolor="#eeaa7a"] ;
489 -> 490 ;
491 [label="gini = 0.3574\nsamples = 477\nvalue = [164, 585, 9]\nclass = 1", fillcolor="#73eda6"] ;
489 -> 491 ;
492 [label="pkt_size_min <= 78.0\ngini = 0.549\nsamples = 1267\nvalue = [213, 1165, 597]\nclass = 1", fillcolor="#adf4cb"] ;
460 -> 492 ;
493 [label="flow_iat_min <= 39.5\ngini = 0.5715\nsamples = 1161\nvalue = [213, 999, 590]\nclass = 1", fillcolor="#bcf6d4"] ;
492 -> 493 ;
494 [label="pkt_size_var_approx <= 4404.0\ngini = 0.0688\nsamples = 285\nvalue = [5, 10, 409]\nclass = 2", fillcolor="#8640e6"] ;
493 -> 494 ;
495 [label="bin_3 <= 1.5\ngini = 0.061\nsamples = 277\nvalue = [3, 10, 402]\nclass = 2", fillcolor="#853fe6"] ;
494 -> 495 ;
496 [label="gini = 0.3704\nsamples = 6\nvalue = [1, 1, 7]\nclass = 2", fillcolor="#a06aec"] ;
495 -> 496 ;
497 [label="gini = 0.0529\nsamples = 271\nvalue = [2, 9, 395]\nclass = 2", fillcolor="#843ee6"] ;
495 -> 497 ;
498 [label="pkt_size_max <= 227.5\ngini = 0.3457\nsamples = 8\nvalue = [2, 0, 7]\nclass = 2", fillcolor="#a572ec"] ;
494 -> 498 ;
499 [label="gini = 0.0\nsamples = 1\nvalue = [2, 0, 0]\nclass = 0", fillcolor="#e58139"] ;
498 -> 499 ;
500 [label="gini = 0.0\nsamples = 7\nvalue = [0, 0, 7]\nclass = 2", fillcolor="#8139e5"] ;
498 -> 500 ;
501 [label="pkt_size_avg <= 94.5\ngini = 0.4449\nsamples = 876\nvalue = [208, 989, 181]\nclass = 1", fillcolor="#7beeab"] ;
493 -> 501 ;
502 [label="pkt_size_avg <= 92.5\ngini = 0.5398\nsamples = 193\nvalue = [13, 149, 139]\nclass = 1", fillcolor="#f3fdf7"] ;
501 -> 502 ;
503 [label="gini = 0.1646\nsamples = 74\nvalue = [7, 103, 3]\nclass = 1", fillcolor="#4ce78d"] ;
502 -> 503 ;
504 [label="gini = 0.4158\nsamples = 119\nvalue = [6, 46, 136]\nclass = 2", fillcolor="#af82ef"] ;
502 -> 504 ;
505 [label="bin_3 <= 2.5\ngini = 0.3574\nsamples = 683\nvalue = [195, 840, 42]\nclass = 1", fillcolor="#6eeca3"] ;
501 -> 505 ;
506 [label="gini = 0.5761\nsamples = 111\nvalue = [99, 37, 35]\nclass = 0", fillcolor="#f3c5a3"] ;
505 -> 506 ;
507 [label="gini = 0.2032\nsamples = 572\nvalue = [96, 803, 7]\nclass = 1", fillcolor="#52e891"] ;
505 -> 507 ;
508 [label="pkt_size_max <= 276.5\ngini = 0.0777\nsamples = 106\nvalue = [0, 166, 7]\nclass = 1", fillcolor="#41e686"] ;
492 -> 508 ;
509 [label="flow_iat_min <= 35.0\ngini = 0.375\nsamples = 4\nvalue = [0, 2, 6]\nclass = 2", fillcolor="#ab7bee"] ;
508 -> 509 ;
510 [label="pkt_size_avg <= 227.0\ngini = 0.5\nsamples = 2\nvalue = [0, 2, 2]\nclass = 1", fillcolor="#ffffff"] ;
509 -> 510 ;
511 [label="gini = 0.0\nsamples = 1\nvalue = [0, 2, 0]\nclass = 1", fillcolor="#39e581"] ;
510 -> 511 ;
512 [label="gini = 0.0\nsamples = 1\nvalue = [0, 0, 2]\nclass = 2", fillcolor="#8139e5"] ;
510 -> 512 ;
513 [label="gini = 0.0\nsamples = 2\nvalue = [0, 0, 4]\nclass = 2", fillcolor="#8139e5"] ;
509 -> 513 ;
514 [label="pkt_size_avg <= 302.5\ngini = 0.012\nsamples = 102\nvalue = [0, 164, 1]\nclass = 1", fillcolor="#3ae582"] ;
508 -> 514 ;
515 [label="gini = 0.0\nsamples = 101\nvalue = [0, 164, 0]\nclass = 1", fillcolor="#39e581"] ;
514 -> 515 ;
516 [label="gini = 0.0\nsamples = 1\nvalue = [0, 0, 1]\nclass = 2", fillcolor="#8139e5"] ;
514 -> 516 ;
517 [label="flow_iat_min <= 58.5\ngini = 0.2221\nsamples = 41124\nvalue = [860, 56923, 7293]\nclass = 1", fillcolor="#55e993"] ;
399 -> 517 ;
518 [label="pkt_size_max <= 580.5\ngini = 0.5265\nsamples = 5237\nvalue = [248, 4282, 3747]\nclass = 1", fillcolor="#e8fcf0"] ;
517 -> 518 ;
519 [label="pkt_size_max <= 395.5\ngini = 0.42\nsamples = 2512\nvalue = [182, 898, 2847]\nclass = 2", fillcolor="#ae80ee"] ;
518 -> 519 ;
520 [label="pkt_size_min <= 54.0\ngini = 0.3001\nsamples = 1193\nvalue = [141, 184, 1559]\nclass = 2", fillcolor="#995fea"] ;
519 -> 520 ;
521 [label="pkt_size_max <= 186.5\ngini = 0.1482\nsamples = 1047\nvalue = [12, 120, 1519]\nclass = 2", fillcolor="#8c4ae7"] ;
520 -> 521 ;
522 [label="pkt_size_avg <= 95.5\ngini = 0.375\nsamples = 8\nvalue = [3, 9, 0]\nclass = 1", fillcolor="#7beeab"] ;
521 -> 522 ;
523 [label="gini = 0.18\nsamples = 7\nvalue = [1, 9, 0]\nclass = 1", fillcolor="#4fe88f"] ;
522 -> 523 ;
524 [label="gini = 0.0\nsamples = 1\nvalue = [2, 0, 0]\nclass = 0", fillcolor="#e58139"] ;
522 -> 524 ;
525 [label="pkt_size_avg <= 138.5\ngini = 0.1365\nsamples = 1039\nvalue = [9, 111, 1519]\nclass = 2", fillcolor="#8b49e7"] ;
521 -> 525 ;
526 [label="gini = 0.0992\nsamples = 998\nvalue = [9, 73, 1493]\nclass = 2", fillcolor="#8844e6"] ;
525 -> 526 ;
527 [label="gini = 0.4824\nsamples = 41\nvalue = [0, 38, 26]\nclass = 1", fillcolor="#c0f7d7"] ;
525 -> 527 ;
528 [label="pkt_size_var_approx <= 6472.0\ngini = 0.5886\nsamples = 146\nvalue = [129, 64, 40]\nclass = 0", fillcolor="#f5cfb3"] ;
520 -> 528 ;
529 [label="bin_3 <= 0.5\ngini = 0.4263\nsamples = 33\nvalue = [2, 33, 11]\nclass = 1", fillcolor="#83efb0"] ;
528 -> 529 ;
530 [label="gini = 0.3526\nsamples = 31\nvalue = [2, 33, 7]\nclass = 1", fillcolor="#6ceca1"] ;
529 -> 530 ;
531 [label="gini = 0.0\nsamples = 2\nvalue = [0, 0, 4]\nclass = 2", fillcolor="#8139e5"] ;
529 -> 531 ;
532 [label="pkt_size_avg <= 219.0\ngini = 0.4872\nsamples = 113\nvalue = [127, 31, 29]\nclass = 0", fillcolor="#efb185"] ;
528 -> 532 ;
533 [label="gini = 0.4443\nsamples = 106\nvalue = [127, 21, 29]\nclass = 0", fillcolor="#eeac7c"] ;
532 -> 533 ;
534 [label="gini = 0.0\nsamples = 7\nvalue = [0, 10, 0]\nclass = 1", fillcolor="#39e581"] ;
532 -> 534 ;
535 [label="pkt_size_var_approx <= 24559.0\ngini = 0.48\nsamples = 1319\nvalue = [41, 714, 1288]\nclass = 2", fillcolor="#c9a9f4"] ;
519 -> 535 ;
536 [label="bin_3 <= 1.5\ngini = 0.383\nsamples = 1021\nvalue = [4, 400, 1169]\nclass = 2", fillcolor="#ac7dee"] ;
535 -> 536 ;
537 [label="bin_3 <= 0.5\ngini = 0.3582\nsamples = 55\nvalue = [0, 59, 18]\nclass = 1", fillcolor="#75eda7"] ;
536 -> 537 ;
538 [label="gini = 0.0\nsamples = 7\nvalue = [0, 9, 0]\nclass = 1", fillcolor="#39e581"] ;
537 -> 538 ;
539 [label="gini = 0.3893\nsamples = 48\nvalue = [0, 50, 18]\nclass = 1", fillcolor="#80eeae"] ;
537 -> 539 ;
540 [label="bin_5 <= 1.5\ngini = 0.3561\nsamples = 966\nvalue = [4, 341, 1151]\nclass = 2", fillcolor="#a774ed"] ;
536 -> 540 ;
541 [label="gini = 0.3475\nsamples = 956\nvalue = [4, 326, 1151]\nclass = 2", fillcolor="#a572ec"] ;
540 -> 541 ;
542 [label="gini = 0.0\nsamples = 10\nvalue = [0, 15, 0]\nclass = 1", fillcolor="#39e581"] ;
540 -> 542 ;
543 [label="pkt_size_min <= 50.0\ngini = 0.4834\nsamples = 298\nvalue = [37, 314, 119]\nclass = 1", fillcolor="#91f1b9"] ;
535 -> 543 ;
544 [label="gini = 0.0\nsamples = 78\nvalue = [0, 122, 0]\nclass = 1", fillcolor="#39e581"] ;
543 -> 544 ;
545 [label="flow_iat_min <= 14.5\ngini = 0.5674\nsamples = 220\nvalue = [37, 192, 119]\nclass = 1", fillcolor="#c0f7d7"] ;
543 -> 545 ;
546 [label="gini = 0.2309\nsamples = 31\nvalue = [3, 41, 3]\nclass = 1", fillcolor="#54e992"] ;
545 -> 546 ;
547 [label="gini = 0.5871\nsamples = 189\nvalue = [34, 151, 116]\nclass = 1", fillcolor="#dafae7"] ;
545 -> 547 ;
548 [label="bin_3 <= 3.5\ngini = 0.3518\nsamples = 2725\nvalue = [66, 3384, 900]\nclass = 1", fillcolor="#70eca4"] ;
518 -> 548 ;
549 [label="pkt_size_max <= 1506.0\ngini = 0.2837\nsamples = 2418\nvalue = [41, 3215, 611]\nclass = 1", fillcolor="#61ea9a"] ;
548 -> 549 ;
550 [label="pkt_size_max <= 660.0\ngini = 0.2487\nsamples = 2342\nvalue = [25, 3204, 515]\nclass = 1", fillcolor="#5ae996"] ;
549 -> 550 ;
551 [label="pkt_size_avg <= 154.5\ngini = 0.4223\nsamples = 748\nvalue = [0, 824, 358]\nclass = 1", fillcolor="#8ff0b8"] ;
550 -> 551 ;
552 [label="gini = 0.2306\nsamples = 448\nvalue = [0, 613, 94]\nclass = 1", fillcolor="#57e994"] ;
551 -> 552 ;
553 [label="gini = 0.4938\nsamples = 300\nvalue = [0, 211, 264]\nclass = 2", fillcolor="#e6d7fa"] ;
551 -> 553 ;
554 [label="flow_iat_min <= 16.5\ngini = 0.1332\nsamples = 1594\nvalue = [25, 2380, 157]\nclass = 1", fillcolor="#48e78b"] ;
550 -> 554 ;
555 [label="gini = 0.4229\nsamples = 189\nvalue = [12, 239, 82]\nclass = 1", fillcolor="#83efb0"] ;
554 -> 555 ;
556 [label="gini = 0.0762\nsamples = 1405\nvalue = [13, 2141, 75]\nclass = 1", fillcolor="#41e686"] ;
554 -> 556 ;
557 [label="pkt_size_var_approx <= 340120.0\ngini = 0.3659\nsamples = 76\nvalue = [16, 11, 96]\nclass = 2", fillcolor="#a16bec"] ;
549 -> 557 ;
558 [label="bin_5 <= 0.5\ngini = 0.0217\nsamples = 58\nvalue = [0, 1, 90]\nclass = 2", fillcolor="#823be5"] ;
557 -> 558 ;
559 [label="gini = 0.0\nsamples = 57\nvalue = [0, 0, 90]\nclass = 2", fillcolor="#8139e5"] ;
558 -> 559 ;
560 [label="gini = 0.0\nsamples = 1\nvalue = [0, 1, 0]\nclass = 1", fillcolor="#39e581"] ;
558 -> 560 ;
561 [label="flow_iat_min <= 22.0\ngini = 0.6172\nsamples = 18\nvalue = [16, 10, 6]\nclass = 0", fillcolor="#f8ddc9"] ;
557 -> 561 ;
562 [label="gini = 0.0\nsamples = 3\nvalue = [6, 0, 0]\nclass = 0", fillcolor="#e58139"] ;
561 -> 562 ;
563 [label="gini = 0.6509\nsamples = 15\nvalue = [10, 10, 6]\nclass = 0", fillcolor="#ffffff"] ;
561 -> 563 ;
564 [label="pkt_size_avg <= 300.5\ngini = 0.5169\nsamples = 307\nvalue = [25, 169, 289]\nclass = 2", fillcolor="#cfb3f5"] ;
548 -> 564 ;
565 [label="pkt_size_max <= 1506.0\ngini = 0.4426\nsamples = 271\nvalue = [6, 126, 283]\nclass = 2", fillcolor="#bb93f1"] ;
564 -> 565 ;
566 [label="pkt_size_var_approx <= 38365.0\ngini = 0.4995\nsamples = 208\nvalue = [6, 126, 188]\nclass = 2", fillcolor="#d7c0f7"] ;
565 -> 566 ;
567 [label="gini = 0.3531\nsamples = 155\nvalue = [5, 47, 183]\nclass = 2", fillcolor="#a470ec"] ;
566 -> 567 ;
568 [label="gini = 0.1326\nsamples = 53\nvalue = [1, 79, 5]\nclass = 1", fillcolor="#48e78a"] ;
566 -> 568 ;
569 [label="gini = 0.0\nsamples = 63\nvalue = [0, 0, 95]\nclass = 2", fillcolor="#8139e5"] ;
565 -> 569 ;
570 [label="pkt_size_avg <= 505.0\ngini = 0.5143\nsamples = 36\nvalue = [19, 43, 6]\nclass = 1", fillcolor="#9ef2c1"] ;
564 -> 570 ;
571 [label="pkt_size_avg <= 349.5\ngini = 0.0512\nsamples = 20\nvalue = [0, 37, 1]\nclass = 1", fillcolor="#3ee684"] ;
570 -> 571 ;
572 [label="gini = 0.0\nsamples = 18\nvalue = [0, 35, 0]\nclass = 1", fillcolor="#39e581"] ;
571 -> 572 ;
573 [label="gini = 0.4444\nsamples = 2\nvalue = [0, 2, 1]\nclass = 1", fillcolor="#9cf2c0"] ;
571 -> 573 ;
574 [label="flow_iat_min <= 13.0\ngini = 0.5311\nsamples = 16\nvalue = [19, 6, 5]\nclass = 0", fillcolor="#f1bb94"] ;
570 -> 574 ;
575 [label="gini = 0.0\nsamples = 1\nvalue = [0, 0, 2]\nclass = 2", fillcolor="#8139e5"] ;
574 -> 575 ;
576 [label="gini = 0.4821\nsamples = 15\nvalue = [19, 6, 3]\nclass = 0", fillcolor="#f0b58a"] ;
574 -> 576 ;
577 [label="pkt_size_var_approx <= 128315.0\ngini = 0.137\nsamples = 35887\nvalue = [612, 52641, 3546]\nclass = 1", fillcolor="#48e78b"] ;
517 -> 577 ;
578 [label="pkt_size_avg <= 135.5\ngini = 0.0726\nsamples = 33992\nvalue = [488, 51766, 1525]\nclass = 1", fillcolor="#41e686"] ;
577 -> 578 ;
579 [label="pkt_size_max <= 199.0\ngini = 0.2513\nsamples = 6388\nvalue = [397, 8618, 1026]\nclass = 1", fillcolor="#58e995"] ;
578 -> 579 ;
580 [label="flow_iat_min <= 89.5\ngini = 0.1827\nsamples = 33\nvalue = [53, 6, 0]\nclass = 0", fillcolor="#e88f4f"] ;
579 -> 580 ;
581 [label="pkt_size_max <= 196.5\ngini = 0.2604\nsamples = 22\nvalue = [33, 6, 0]\nclass = 0", fillcolor="#ea985d"] ;
580 -> 581 ;
582 [label="gini = 0.0571\nsamples = 20\nvalue = [33, 1, 0]\nclass = 0", fillcolor="#e6853f"] ;
581 -> 582 ;
583 [label="gini = 0.0\nsamples = 2\nvalue = [0, 5, 0]\nclass = 1", fillcolor="#39e581"] ;
581 -> 583 ;
584 [label="gini = 0.0\nsamples = 11\nvalue = [20, 0, 0]\nclass = 0", fillcolor="#e58139"] ;
580 -> 584 ;
585 [label="pkt_size_max <= 382.5\ngini = 0.2439\nsamples = 6355\nvalue = [344, 8612, 1026]\nclass = 1", fillcolor="#57e994"] ;
579 -> 585 ;
586 [label="flow_iat_min <= 91.5\ngini = 0.3126\nsamples = 4285\nvalue = [339, 5516, 898]\nclass = 1", fillcolor="#63ea9c"] ;
585 -> 586 ;
587 [label="gini = 0.1717\nsamples = 2534\nvalue = [137, 3694, 239]\nclass = 1", fillcolor="#4ce88d"] ;
586 -> 587 ;
588 [label="gini = 0.4728\nsamples = 1751\nvalue = [202, 1822, 659]\nclass = 1", fillcolor="#8df0b7"] ;
586 -> 588 ;
589 [label="pkt_size_max <= 449.5\ngini = 0.0791\nsamples = 2070\nvalue = [5, 3096, 128]\nclass = 1", fillcolor="#41e686"] ;
585 -> 589 ;
590 [label="gini = 0.013\nsamples = 1184\nvalue = [5, 1822, 7]\nclass = 1", fillcolor="#3ae582"] ;
589 -> 590 ;
591 [label="gini = 0.1584\nsamples = 886\nvalue = [0, 1274, 121]\nclass = 1", fillcolor="#4ce78d"] ;
589 -> 591 ;
592 [label="pkt_size_max <= 1000.0\ngini = 0.0267\nsamples = 27604\nvalue = [91, 43148, 499]\nclass = 1", fillcolor="#3ce583"] ;
578 -> 592 ;
593 [label="pkt_size_min <= 57.0\ngini = 0.0203\nsamples = 27497\nvalue = [83, 43115, 364]\nclass = 1", fillcolor="#3be582"] ;
592 -> 593 ;
594 [label="pkt_size_max <= 272.5\ngini = 0.0358\nsamples = 13783\nvalue = [37, 21434, 360]\nclass = 1", fillcolor="#3de583"] ;
593 -> 594 ;
595 [label="gini = 0.3702\nsamples = 33\nvalue = [13, 40, 0]\nclass = 1", fillcolor="#79edaa"] ;
594 -> 595 ;
596 [label="gini = 0.0347\nsamples = 13750\nvalue = [24, 21394, 360]\nclass = 1", fillcolor="#3de583"] ;
594 -> 596 ;
597 [label="pkt_size_min <= 79.5\ngini = 0.0046\nsamples = 13714\nvalue = [46, 21681, 4]\nclass = 1", fillcolor="#39e581"] ;
593 -> 597 ;
598 [label="gini = 0.0147\nsamples = 4053\nvalue = [46, 6450, 2]\nclass = 1", fillcolor="#3ae582"] ;
597 -> 598 ;
599 [label="gini = 0.0003\nsamples = 9661\nvalue = [0, 15231, 2]\nclass = 1", fillcolor="#39e581"] ;
597 -> 599 ;
600 [label="pkt_size_avg <= 202.0\ngini = 0.3744\nsamples = 107\nvalue = [8, 33, 135]\nclass = 2", fillcolor="#a572ec"] ;
592 -> 600 ;
601 [label="flow_iat_min <= 111.0\ngini = 0.0202\nsamples = 61\nvalue = [0, 1, 97]\nclass = 2", fillcolor="#823be5"] ;
600 -> 601 ;
602 [label="gini = 0.0\nsamples = 58\nvalue = [0, 0, 95]\nclass = 2", fillcolor="#8139e5"] ;
601 -> 602 ;
603 [label="gini = 0.4444\nsamples = 3\nvalue = [0, 1, 2]\nclass = 2", fillcolor="#c09cf2"] ;
601 -> 603 ;
604 [label="pkt_size_max <= 1019.5\ngini = 0.5838\nsamples = 46\nvalue = [8, 32, 38]\nclass = 2", fillcolor="#efe5fc"] ;
600 -> 604 ;
605 [label="gini = 0.2055\nsamples = 24\nvalue = [5, 0, 38]\nclass = 2", fillcolor="#9253e8"] ;
604 -> 605 ;
606 [label="gini = 0.1567\nsamples = 22\nvalue = [3, 32, 0]\nclass = 1", fillcolor="#4ce78d"] ;
604 -> 606 ;
607 [label="pkt_size_max <= 1496.0\ngini = 0.4665\nsamples = 1895\nvalue = [124, 875, 2021]\nclass = 2", fillcolor="#bc95f1"] ;
577 -> 607 ;
608 [label="pkt_size_min <= 51.5\ngini = 0.4265\nsamples = 731\nvalue = [92, 841, 222]\nclass = 1", fillcolor="#7ceeab"] ;
607 -> 608 ;
609 [label="bin_3 <= 2.5\ngini = 0.0294\nsamples = 295\nvalue = [5, 463, 2]\nclass = 1", fillcolor="#3ce583"] ;
608 -> 609 ;
610 [label="pkt_size_max <= 1149.5\ngini = 0.4938\nsamples = 6\nvalue = [5, 4, 0]\nclass = 0", fillcolor="#fae6d7"] ;
609 -> 610 ;
611 [label="gini = 0.32\nsamples = 4\nvalue = [1, 4, 0]\nclass = 1", fillcolor="#6aeca0"] ;
610 -> 611 ;
612 [label="gini = 0.0\nsamples = 2\nvalue = [4, 0, 0]\nclass = 0", fillcolor="#e58139"] ;
610 -> 612 ;
613 [label="pkt_size_max <= 1487.0\ngini = 0.0086\nsamples = 289\nvalue = [0, 459, 2]\nclass = 1", fillcolor="#3ae582"] ;
609 -> 613 ;
614 [label="gini = 0.0\nsamples = 287\nvalue = [0, 457, 0]\nclass = 1", fillcolor="#39e581"] ;
613 -> 614 ;
615 [label="gini = 0.5\nsamples = 2\nvalue = [0, 2, 2]\nclass = 1", fillcolor="#ffffff"] ;
613 -> 615 ;
616 [label="bin_5 <= 0.5\ngini = 0.5762\nsamples = 436\nvalue = [87, 378, 220]\nclass = 1", fillcolor="#bcf6d4"] ;
608 -> 616 ;
617 [label="pkt_size_var_approx <= 261570.0\ngini = 0.603\nsamples = 248\nvalue = [83, 101, 214]\nclass = 2", fillcolor="#cfb4f5"] ;
616 -> 617 ;
618 [label="gini = 0.5171\nsamples = 200\nvalue = [35, 78, 200]\nclass = 2", fillcolor="#be98f2"] ;
617 -> 618 ;
619 [label="gini = 0.5808\nsamples = 48\nvalue = [48, 23, 14]\nclass = 0", fillcolor="#f5ccaf"] ;
617 -> 619 ;
620 [label="pkt_size_avg <= 472.5\ngini = 0.0678\nsamples = 188\nvalue = [4, 277, 6]\nclass = 1", fillcolor="#40e685"] ;
616 -> 620 ;
621 [label="gini = 0.0212\nsamples = 182\nvalue = [2, 277, 1]\nclass = 1", fillcolor="#3be582"] ;
620 -> 621 ;
622 [label="gini = 0.4082\nsamples = 6\nvalue = [2, 0, 5]\nclass = 2", fillcolor="#b388ef"] ;
620 -> 622 ;
623 [label="pkt_size_max <= 2198.0\ngini = 0.0689\nsamples = 1164\nvalue = [32, 34, 1799]\nclass = 2", fillcolor="#8640e6"] ;
607 -> 623 ;
624 [label="pkt_size_avg <= 653.5\ngini = 0.0402\nsamples = 1136\nvalue = [16, 21, 1777]\nclass = 2", fillcolor="#843de6"] ;
623 -> 624 ;
625 [label="pkt_size_max <= 1506.0\ngini = 0.0285\nsamples = 1127\nvalue = [6, 20, 1775]\nclass = 2", fillcolor="#833ce5"] ;
624 -> 625 ;
626 [label="gini = 0.1509\nsamples = 174\nvalue = [5, 16, 239]\nclass = 2", fillcolor="#8c4ae7"] ;
625 -> 626 ;
627 [label="gini = 0.0065\nsamples = 953\nvalue = [1, 4, 1536]\nclass = 2", fillcolor="#813ae5"] ;
625 -> 627 ;
628 [label="pkt_size_avg <= 847.5\ngini = 0.3787\nsamples = 9\nvalue = [10, 1, 2]\nclass = 0", fillcolor="#eca36f"] ;
624 -> 628 ;
629 [label="gini = 0.64\nsamples = 4\nvalue = [2, 1, 2]\nclass = 0", fillcolor="#ffffff"] ;
628 -> 629 ;
630 [label="gini = 0.0\nsamples = 5\nvalue = [8, 0, 0]\nclass = 0", fillcolor="#e58139"] ;
628 -> 630 ;
631 [label="pkt_size_avg <= 1117.5\ngini = 0.6505\nsamples = 28\nvalue = [16, 13, 22]\nclass = 2", fillcolor="#e9ddfb"] ;
623 -> 631 ;
632 [label="pkt_size_var_approx <= 1286652.0\ngini = 0.5816\nsamples = 16\nvalue = [15, 8, 4]\nclass = 0", fillcolor="#f5d1b6"] ;
631 -> 632 ;
633 [label="gini = 0.4965\nsamples = 14\nvalue = [15, 8, 1]\nclass = 0", fillcolor="#f4c8a8"] ;
632 -> 633 ;
634 [label="gini = 0.0\nsamples = 2\nvalue = [0, 0, 3]\nclass = 2", fillcolor="#8139e5"] ;
632 -> 634 ;
635 [label="pkt_size_max <= 5868.0\ngini = 0.3924\nsamples = 12\nvalue = [1, 5, 18]\nclass = 2", fillcolor="#a978ed"] ;
631 -> 635 ;
636 [label="gini = 0.2266\nsamples = 8\nvalue = [1, 1, 14]\nclass = 2", fillcolor="#9253e8"] ;
635 -> 636 ;
637 [label="gini = 0.5\nsamples = 4\nvalue = [0, 4, 4]\nclass = 1", fillcolor="#ffffff"] ;
635 -> 637 ;
638 [label="pkt_size_max <= 254.0\ngini = 0.4334\nsamples = 20683\nvalue = [3904, 4951, 23612]\nclass = 2", fillcolor="#aa79ed"] ;
398 -> 638 ;
639 [label="pkt_size_avg <= 70.5\ngini = 0.6594\nsamples = 6296\nvalue = [3088, 3952, 2812]\nclass = 1", fillcolor="#e6fcef"] ;
638 -> 639 ;
640 [label="pkt_size_max <= 57.5\ngini = 0.1043\nsamples = 2455\nvalue = [73, 3578, 133]\nclass = 1", fillcolor="#44e688"] ;
639 -> 640 ;
641 [label="pkt_size_var_approx <= 33.0\ngini = 0.5078\nsamples = 16\nvalue = [20, 10, 2]\nclass = 0", fillcolor="#f3c6a5"] ;
640 -> 641 ;
642 [label="flow_iat_min <= 31353.5\ngini = 0.2268\nsamples = 11\nvalue = [20, 3, 0]\nclass = 0", fillcolor="#e99457"] ;
641 -> 642 ;
643 [label="pkt_size_avg <= 50.5\ngini = 0.3967\nsamples = 5\nvalue = [8, 3, 0]\nclass = 0", fillcolor="#efb083"] ;
642 -> 643 ;
644 [label="gini = 0.0\nsamples = 1\nvalue = [0, 3, 0]\nclass = 1", fillcolor="#39e581"] ;
643 -> 644 ;
645 [label="gini = 0.0\nsamples = 4\nvalue = [8, 0, 0]\nclass = 0", fillcolor="#e58139"] ;
643 -> 645 ;
646 [label="gini = 0.0\nsamples = 6\nvalue = [12, 0, 0]\nclass = 0", fillcolor="#e58139"] ;
642 -> 646 ;
647 [label="pkt_size_avg <= 51.0\ngini = 0.3457\nsamples = 5\nvalue = [0, 7, 2]\nclass = 1", fillcolor="#72eca5"] ;
641 -> 647 ;
648 [label="gini = 0.0\nsamples = 2\nvalue = [0, 4, 0]\nclass = 1", fillcolor="#39e581"] ;
647 -> 648 ;
649 [label="pkt_size_var_approx <= 297.0\ngini = 0.48\nsamples = 3\nvalue = [0, 3, 2]\nclass = 1", fillcolor="#bdf6d5"] ;
647 -> 649 ;
650 [label="gini = 0.0\nsamples = 2\nvalue = [0, 0, 2]\nclass = 2", fillcolor="#8139e5"] ;
649 -> 650 ;
651 [label="gini = 0.0\nsamples = 1\nvalue = [0, 3, 0]\nclass = 1", fillcolor="#39e581"] ;
649 -> 651 ;
652 [label="flow_iat_min <= 5168370.0\ngini = 0.0943\nsamples = 2439\nvalue = [53, 3568, 131]\nclass = 1", fillcolor="#43e687"] ;
640 -> 652 ;
653 [label="bin_3 <= 4.5\ngini = 0.0753\nsamples = 2398\nvalue = [14, 3542, 130]\nclass = 1", fillcolor="#41e686"] ;
652 -> 653 ;
654 [label="bin_3 <= 1.5\ngini = 0.1884\nsamples = 13\nvalue = [2, 0, 17]\nclass = 2", fillcolor="#9050e8"] ;
653 -> 654 ;
655 [label="gini = 0.0\nsamples = 10\nvalue = [0, 0, 15]\nclass = 2", fillcolor="#8139e5"] ;
654 -> 655 ;
656 [label="pkt_size_var_approx <= 484.0\ngini = 0.5\nsamples = 3\nvalue = [2, 0, 2]\nclass = 0", fillcolor="#ffffff"] ;
654 -> 656 ;
657 [label="gini = 0.0\nsamples = 2\nvalue = [2, 0, 0]\nclass = 0", fillcolor="#e58139"] ;
656 -> 657 ;
658 [label="gini = 0.0\nsamples = 1\nvalue = [0, 0, 2]\nclass = 2", fillcolor="#8139e5"] ;
656 -> 658 ;
659 [label="flow_iat_min <= 2981212.0\ngini = 0.0661\nsamples = 2385\nvalue = [12, 3542, 113]\nclass = 1", fillcolor="#40e685"] ;
653 -> 659 ;
660 [label="pkt_size_min <= 58.5\ngini = 0.1059\nsamples = 1173\nvalue = [12, 1729, 90]\nclass = 1", fillcolor="#45e788"] ;
659 -> 660 ;
661 [label="gini = 0.063\nsamples = 1148\nvalue = [7, 1729, 51]\nclass = 1", fillcolor="#40e685"] ;
660 -> 661 ;
662 [label="gini = 0.2014\nsamples = 25\nvalue = [5, 0, 39]\nclass = 2", fillcolor="#9152e8"] ;
660 -> 662 ;
663 [label="flow_iat_min <= 3000254.0\ngini = 0.0247\nsamples = 1212\nvalue = [0, 1813, 23]\nclass = 1", fillcolor="#3ce583"] ;
659 -> 663 ;
664 [label="gini = 0.0181\nsamples = 1087\nvalue = [0, 1631, 15]\nclass = 1", fillcolor="#3be582"] ;
663 -> 664 ;
665 [label="gini = 0.0807\nsamples = 125\nvalue = [0, 182, 8]\nclass = 1", fillcolor="#42e687"] ;
663 -> 665 ;
666 [label="pkt_size_min <= 60.5\ngini = 0.4954\nsamples = 41\nvalue = [39, 26, 1]\nclass = 0", fillcolor="#f7d6bf"] ;
652 -> 666 ;
667 [label="pkt_size_max <= 61.5\ngini = 0.1902\nsamples = 19\nvalue = [2, 26, 1]\nclass = 1", fillcolor="#4fe88f"] ;
666 -> 667 ;
668 [label="gini = 0.0\nsamples = 12\nvalue = [0, 20, 0]\nclass = 1", fillcolor="#39e581"] ;
667 -> 668 ;
669 [label="pkt_size_avg <= 61.5\ngini = 0.4938\nsamples = 7\nvalue = [2, 6, 1]\nclass = 1", fillcolor="#8ef0b7"] ;
667 -> 669 ;
670 [label="gini = 0.4444\nsamples = 2\nvalue = [2, 0, 1]\nclass = 0", fillcolor="#f2c09c"] ;
669 -> 670 ;
671 [label="gini = 0.0\nsamples = 5\nvalue = [0, 6, 0]\nclass = 1", fillcolor="#39e581"] ;
669 -> 671 ;
672 [label="gini = 0.0\nsamples = 22\nvalue = [37, 0, 0]\nclass = 0", fillcolor="#e58139"] ;
666 -> 672 ;
673 [label="pkt_size_var_approx <= 772.0\ngini = 0.5544\nsamples = 3841\nvalue = [3015, 374, 2679]\nclass = 0", fillcolor="#fcf3eb"] ;
639 -> 673 ;
674 [label="pkt_size_max <= 94.0\ngini = 0.3881\nsamples = 2005\nvalue = [601, 169, 2399]\nclass = 2", fillcolor="#a774ed"] ;
673 -> 674 ;
675 [label="pkt_size_var_approx <= 80.0\ngini = 0.0831\nsamples = 1495\nvalue = [102, 0, 2245]\nclass = 2", fillcolor="#8742e6"] ;
674 -> 675 ;
676 [label="pkt_size_min <= 72.5\ngini = 0.3648\nsamples = 268\nvalue = [102, 0, 323]\nclass = 2", fillcolor="#a978ed"] ;
675 -> 676 ;
677 [label="pkt_size_max <= 87.5\ngini = 0.022\nsamples = 58\nvalue = [89, 0, 1]\nclass = 0", fillcolor="#e5823b"] ;
676 -> 677 ;
678 [label="gini = 0.0\nsamples = 57\nvalue = [89, 0, 0]\nclass = 0", fillcolor="#e58139"] ;
677 -> 678 ;
679 [label="gini = 0.0\nsamples = 1\nvalue = [0, 0, 1]\nclass = 2", fillcolor="#8139e5"] ;
677 -> 679 ;
680 [label="bin_5 <= 4.0\ngini = 0.0746\nsamples = 210\nvalue = [13, 0, 322]\nclass = 2", fillcolor="#8641e6"] ;
676 -> 680 ;
681 [label="gini = 0.4274\nsamples = 24\nvalue = [13, 0, 29]\nclass = 2", fillcolor="#b992f1"] ;
680 -> 681 ;
682 [label="gini = 0.0\nsamples = 186\nvalue = [0, 0, 293]\nclass = 2", fillcolor="#8139e5"] ;
680 -> 682 ;
683 [label="gini = 0.0\nsamples = 1227\nvalue = [0, 0, 1922]\nclass = 2", fillcolor="#8139e5"] ;
675 -> 683 ;
684 [label="flow_iat_min <= 309.5\ngini = 0.5541\nsamples = 510\nvalue = [499, 169, 154]\nclass = 0", fillcolor="#f2bf9b"] ;
674 -> 684 ;
685 [label="pkt_size_avg <= 73.0\ngini = 0.1497\nsamples = 88\nvalue = [0, 11, 124]\nclass = 2", fillcolor="#8c4be7"] ;
684 -> 685 ;
686 [label="pkt_size_min <= 61.5\ngini = 0.5\nsamples = 6\nvalue = [0, 6, 6]\nclass = 1", fillcolor="#ffffff"] ;
685 -> 686 ;
687 [label="gini = 0.0\nsamples = 3\nvalue = [0, 6, 0]\nclass = 1", fillcolor="#39e581"] ;
686 -> 687 ;
688 [label="gini = 0.0\nsamples = 3\nvalue = [0, 0, 6]\nclass = 2", fillcolor="#8139e5"] ;
686 -> 688 ;
689 [label="bin_3 <= 1.5\ngini = 0.078\nsamples = 82\nvalue = [0, 5, 118]\nclass = 2", fillcolor="#8641e6"] ;
685 -> 689 ;
690 [label="gini = 0.0\nsamples = 77\nvalue = [0, 0, 117]\nclass = 2", fillcolor="#8139e5"] ;
689 -> 690 ;
691 [label="gini = 0.2778\nsamples = 5\nvalue = [0, 5, 1]\nclass = 1", fillcolor="#61ea9a"] ;
689 -> 691 ;
692 [label="pkt_size_avg <= 76.5\ngini = 0.4176\nsamples = 422\nvalue = [499, 158, 30]\nclass = 0", fillcolor="#eeae7f"] ;
684 -> 692 ;
693 [label="pkt_size_min <= 57.0\ngini = 0.239\nsamples = 81\nvalue = [17, 113, 1]\nclass = 1", fillcolor="#58e995"] ;
692 -> 693 ;
694 [label="gini = 0.255\nsamples = 14\nvalue = [17, 3, 0]\nclass = 0", fillcolor="#ea975c"] ;
693 -> 694 ;
695 [label="gini = 0.0179\nsamples = 67\nvalue = [0, 110, 1]\nclass = 1", fillcolor="#3be582"] ;
693 -> 695 ;
696 [label="pkt_size_min <= 86.0\ngini = 0.2392\nsamples = 341\nvalue = [482, 45, 29]\nclass = 0", fillcolor="#e99356"] ;
692 -> 696 ;
697 [label="gini = 0.088\nsamples = 310\nvalue = [482, 10, 13]\nclass = 0", fillcolor="#e68742"] ;
696 -> 697 ;
698 [label="gini = 0.4306\nsamples = 31\nvalue = [0, 35, 16]\nclass = 1", fillcolor="#94f1bb"] ;
696 -> 698 ;
699 [label="pkt_size_avg <= 87.5\ngini = 0.2923\nsamples = 1836\nvalue = [2414, 205, 280]\nclass = 0", fillcolor="#ea985e"] ;
673 -> 699 ;
700 [label="pkt_size_avg <= 77.5\ngini = 0.6137\nsamples = 208\nvalue = [71, 175, 92]\nclass = 1", fillcolor="#bcf6d4"] ;
699 -> 700 ;
701 [label="flow_iat_min <= 216.0\ngini = 0.3406\nsamples = 84\nvalue = [6, 112, 23]\nclass = 1", fillcolor="#6aeba0"] ;
700 -> 701 ;
702 [label="flow_iat_min <= 179.0\ngini = 0.4928\nsamples = 15\nvalue = [0, 14, 11]\nclass = 1", fillcolor="#d5f9e4"] ;
701 -> 702 ;
703 [label="gini = 0.0\nsamples = 4\nvalue = [0, 6, 0]\nclass = 1", fillcolor="#39e581"] ;
702 -> 703 ;
704 [label="gini = 0.4875\nsamples = 11\nvalue = [0, 8, 11]\nclass = 2", fillcolor="#ddc9f8"] ;
702 -> 704 ;
705 [label="bin_3 <= 2.5\ngini = 0.2729\nsamples = 69\nvalue = [6, 98, 12]\nclass = 1", fillcolor="#5bea97"] ;
701 -> 705 ;
706 [label="gini = 0.375\nsamples = 12\nvalue = [4, 0, 12]\nclass = 2", fillcolor="#ab7bee"] ;
705 -> 706 ;
707 [label="gini = 0.0392\nsamples = 57\nvalue = [2, 98, 0]\nclass = 1", fillcolor="#3de684"] ;
705 -> 707 ;
708 [label="bin_3 <= 0.5\ngini = 0.6662\nsamples = 124\nvalue = [65, 63, 69]\nclass = 2", fillcolor="#fbf9fe"] ;
700 -> 708 ;
709 [label="gini = 0.0\nsamples = 39\nvalue = [0, 0, 66]\nclass = 2", fillcolor="#8139e5"] ;
708 -> 709 ;
710 [label="flow_iat_min <= 928.0\ngini = 0.522\nsamples = 85\nvalue = [65, 63, 3]\nclass = 0", fillcolor="#fefbf9"] ;
708 -> 710 ;
711 [label="gini = 0.1626\nsamples = 37\nvalue = [5, 51, 0]\nclass = 1", fillcolor="#4ce88d"] ;
710 -> 711 ;
712 [label="gini = 0.3328\nsamples = 48\nvalue = [60, 12, 3]\nclass = 0", fillcolor="#eb9f68"] ;
710 -> 712 ;
713 [label="flow_iat_min <= 317.0\ngini = 0.1575\nsamples = 1628\nvalue = [2343, 30, 188]\nclass = 0", fillcolor="#e78d4b"] ;
699 -> 713 ;
714 [label="pkt_size_max <= 178.5\ngini = 0.5139\nsamples = 85\nvalue = [46, 9, 88]\nclass = 2", fillcolor="#c8a9f4"] ;
713 -> 714 ;
715 [label="pkt_size_var_approx <= 2147484839.0\ngini = 0.5833\nsamples = 53\nvalue = [39, 9, 43]\nclass = 2", fillcolor="#f5f0fd"] ;
714 -> 715 ;
716 [label="gini = 0.3203\nsamples = 26\nvalue = [39, 6, 3]\nclass = 0", fillcolor="#eb9c63"] ;
715 -> 716 ;
717 [label="gini = 0.1298\nsamples = 27\nvalue = [0, 3, 40]\nclass = 2", fillcolor="#8a48e7"] ;
715 -> 717 ;
718 [label="pkt_size_var_approx <= 3169.0\ngini = 0.233\nsamples = 32\nvalue = [7, 0, 45]\nclass = 2", fillcolor="#9558e9"] ;
714 -> 718 ;
719 [label="gini = 0.0487\nsamples = 22\nvalue = [1, 0, 39]\nclass = 2", fillcolor="#843ee6"] ;
718 -> 719 ;
720 [label="gini = 0.5\nsamples = 10\nvalue = [6, 0, 6]\nclass = 0", fillcolor="#ffffff"] ;
718 -> 720 ;
721 [label="pkt_size_avg <= 134.0\ngini = 0.0958\nsamples = 1543\nvalue = [2297, 21, 100]\nclass = 0", fillcolor="#e68843"] ;
713 -> 721 ;
722 [label="pkt_size_max <= 106.0\ngini = 0.0428\nsamples = 1494\nvalue = [2293, 20, 31]\nclass = 0", fillcolor="#e6843d"] ;
721 -> 722 ;
723 [label="gini = 0.18\nsamples = 5\nvalue = [0, 1, 9]\nclass = 2", fillcolor="#8f4fe8"] ;
722 -> 723 ;
724 [label="gini = 0.0347\nsamples = 1489\nvalue = [2293, 19, 22]\nclass = 0", fillcolor="#e5833d"] ;
722 -> 724 ;
725 [label="pkt_size_min <= 66.5\ngini = 0.1275\nsamples = 49\nvalue = [4, 1, 69]\nclass = 2", fillcolor="#8a47e7"] ;
721 -> 725 ;
726 [label="gini = 0.5938\nsamples = 5\nvalue = [4, 1, 3]\nclass = 0", fillcolor="#fae6d7"] ;
725 -> 726 ;
727 [label="gini = 0.0\nsamples = 44\nvalue = [0, 0, 66]\nclass = 2", fillcolor="#8139e5"] ;
725 -> 727 ;
728 [label="bin_3 <= 2.5\ngini = 0.1508\nsamples = 14387\nvalue = [816, 999, 20800]\nclass = 2", fillcolor="#8c4ae7"] ;
638 -> 728 ;
729 [label="pkt_size_min <= 99.5\ngini = 0.0883\nsamples = 13827\nvalue = [740, 255, 20714]\nclass = 2", fillcolor="#8742e6"] ;
728 -> 729 ;
730 [label="pkt_size_avg <= 148.5\ngini = 0.072\nsamples = 13459\nvalue = [740, 48, 20343]\nclass = 2", fillcolor="#8641e6"] ;
729 -> 730 ;
731 [label="pkt_size_min <= 70.5\ngini = 0.1233\nsamples = 4297\nvalue = [452, 0, 6398]\nclass = 2", fillcolor="#8a47e7"] ;
730 -> 731 ;
732 [label="pkt_size_min <= 53.0\ngini = 0.0611\nsamples = 4034\nvalue = [203, 0, 6232]\nclass = 2", fillcolor="#853fe6"] ;
731 -> 732 ;
733 [label="gini = 0.0\nsamples = 23\nvalue = [39, 0, 0]\nclass = 0", fillcolor="#e58139"] ;
732 -> 733 ;
734 [label="pkt_size_max <= 268.0\ngini = 0.05\nsamples = 4011\nvalue = [164, 0, 6232]\nclass = 2", fillcolor="#843ee6"] ;
732 -> 734 ;
735 [label="gini = 0.0035\nsamples = 3898\nvalue = [11, 0, 6211]\nclass = 2", fillcolor="#8139e5"] ;
734 -> 735 ;
736 [label="gini = 0.2122\nsamples = 113\nvalue = [153, 0, 21]\nclass = 0", fillcolor="#e99254"] ;
734 -> 736 ;
737 [label="flow_iat_min <= 358.5\ngini = 0.48\nsamples = 263\nvalue = [249, 0, 166]\nclass = 0", fillcolor="#f6d5bd"] ;
731 -> 737 ;
738 [label="pkt_size_avg <= 111.5\ngini = 0.1019\nsamples = 90\nvalue = [7, 0, 123]\nclass = 2", fillcolor="#8844e6"] ;
737 -> 738 ;
739 [label="gini = 0.0\nsamples = 3\nvalue = [4, 0, 0]\nclass = 0", fillcolor="#e58139"] ;
738 -> 739 ;
740 [label="gini = 0.0465\nsamples = 87\nvalue = [3, 0, 123]\nclass = 2", fillcolor="#843ee6"] ;
738 -> 740 ;
741 [label="pkt_size_min <= 84.5\ngini = 0.2562\nsamples = 173\nvalue = [242, 0, 43]\nclass = 0", fillcolor="#ea975c"] ;
737 -> 741 ;
742 [label="gini = 0.1163\nsamples = 154\nvalue = [242, 0, 16]\nclass = 0", fillcolor="#e78946"] ;
741 -> 742 ;
743 [label="gini = 0.0\nsamples = 19\nvalue = [0, 0, 27]\nclass = 2", fillcolor="#8139e5"] ;
741 -> 743 ;
744 [label="pkt_size_min <= 84.0\ngini = 0.0461\nsamples = 9162\nvalue = [288, 48, 13945]\nclass = 2", fillcolor="#843ee6"] ;
730 -> 744 ;
745 [label="pkt_size_max <= 311.5\ngini = 0.0866\nsamples = 4756\nvalue = [288, 47, 7091]\nclass = 2", fillcolor="#8742e6"] ;
744 -> 745 ;
746 [label="gini = 0.0\nsamples = 3341\nvalue = [0, 0, 5227]\nclass = 2", fillcolor="#8139e5"] ;
745 -> 746 ;
747 [label="pkt_size_var_approx <= 16405.0\ngini = 0.2639\nsamples = 1415\nvalue = [288, 47, 1864]\nclass = 2", fillcolor="#975cea"] ;
745 -> 747 ;
748 [label="gini = 0.4677\nsamples = 187\nvalue = [193, 14, 80]\nclass = 0", fillcolor="#f1ba93"] ;
747 -> 748 ;
749 [label="gini = 0.1266\nsamples = 1228\nvalue = [95, 33, 1784]\nclass = 2", fillcolor="#8a47e7"] ;
747 -> 749 ;
750 [label="pkt_size_min <= 91.0\ngini = 0.0003\nsamples = 4406\nvalue = [0, 1, 6854]\nclass = 2", fillcolor="#8139e5"] ;
744 -> 750 ;
751 [label="bin_5 <= 1.5\ngini = 0.0328\nsamples = 42\nvalue = [0, 1, 59]\nclass = 2", fillcolor="#833ce5"] ;
750 -> 751 ;
752 [label="gini = 0.0\nsamples = 1\nvalue = [0, 1, 0]\nclass = 1", fillcolor="#39e581"] ;
751 -> 752 ;
753 [label="gini = 0.0\nsamples = 41\nvalue = [0, 0, 59]\nclass = 2", fillcolor="#8139e5"] ;
751 -> 753 ;
754 [label="gini = 0.0\nsamples = 4364\nvalue = [0, 0, 6795]\nclass = 2", fillcolor="#8139e5"] ;
750 -> 754 ;
755 [label="pkt_size_max <= 286.5\ngini = 0.4597\nsamples = 368\nvalue = [0, 207, 371]\nclass = 2", fillcolor="#c7a7f4"] ;
729 -> 755 ;
756 [label="gini = 0.0\nsamples = 107\nvalue = [0, 0, 170]\nclass = 2", fillcolor="#8139e5"] ;
755 -> 756 ;
757 [label="flow_iat_min <= 29778175.5\ngini = 0.4999\nsamples = 261\nvalue = [0, 207, 201]\nclass = 1", fillcolor="#f9fefb"] ;
755 -> 757 ;
758 [label="pkt_size_var_approx <= 1472.0\ngini = 0.3998\nsamples = 182\nvalue = [0, 207, 79]\nclass = 1", fillcolor="#85efb1"] ;
757 -> 758 ;
759 [label="gini = 0.0\nsamples = 21\nvalue = [0, 0, 36]\nclass = 2", fillcolor="#8139e5"] ;
758 -> 759 ;
760 [label="pkt_size_avg <= 279.5\ngini = 0.2848\nsamples = 161\nvalue = [0, 207, 43]\nclass = 1", fillcolor="#62ea9b"] ;
758 -> 760 ;
761 [label="gini = 0.0\nsamples = 119\nvalue = [0, 185, 0]\nclass = 1", fillcolor="#39e581"] ;
760 -> 761 ;
762 [label="gini = 0.4478\nsamples = 42\nvalue = [0, 22, 43]\nclass = 2", fillcolor="#c19ef2"] ;
760 -> 762 ;
763 [label="gini = 0.0\nsamples = 79\nvalue = [0, 0, 122]\nclass = 2", fillcolor="#8139e5"] ;
757 -> 763 ;
764 [label="pkt_size_max <= 822.5\ngini = 0.3096\nsamples = 560\nvalue = [76, 744, 86]\nclass = 1", fillcolor="#60ea9a"] ;
728 -> 764 ;
765 [label="pkt_size_min <= 49.0\ngini = 0.2012\nsamples = 488\nvalue = [57, 704, 30]\nclass = 1", fillcolor="#50e890"] ;
764 -> 765 ;
766 [label="gini = 0.0\nsamples = 412\nvalue = [0, 670, 0]\nclass = 1", fillcolor="#39e581"] ;
765 -> 766 ;
767 [label="pkt_size_avg <= 117.0\ngini = 0.6377\nsamples = 76\nvalue = [57, 34, 30]\nclass = 0", fillcolor="#f8decb"] ;
765 -> 767 ;
768 [label="pkt_size_max <= 298.0\ngini = 0.547\nsamples = 24\nvalue = [14, 3, 22]\nclass = 2", fillcolor="#d7c0f7"] ;
767 -> 768 ;
769 [label="gini = 0.0\nsamples = 8\nvalue = [0, 0, 12]\nclass = 2", fillcolor="#8139e5"] ;
768 -> 769 ;
770 [label="flow_iat_min <= 64575.0\ngini = 0.5816\nsamples = 16\nvalue = [14, 3, 10]\nclass = 0", fillcolor="#f9e1d0"] ;
768 -> 770 ;
771 [label="gini = 0.482\nsamples = 12\nvalue = [13, 3, 3]\nclass = 0", fillcolor="#efb083"] ;
770 -> 771 ;
772 [label="gini = 0.2188\nsamples = 4\nvalue = [1, 0, 7]\nclass = 2", fillcolor="#9355e9"] ;
770 -> 772 ;
773 [label="flow_iat_min <= 1377.5\ngini = 0.5726\nsamples = 52\nvalue = [43, 31, 8]\nclass = 0", fillcolor="#f9e1d0"] ;
767 -> 773 ;
774 [label="pkt_size_avg <= 242.5\ngini = 0.3532\nsamples = 25\nvalue = [5, 30, 3]\nclass = 1", fillcolor="#69eba0"] ;
773 -> 774 ;
775 [label="gini = 0.2901\nsamples = 23\nvalue = [4, 30, 2]\nclass = 1", fillcolor="#5eea99"] ;
774 -> 775 ;
776 [label="gini = 0.5\nsamples = 2\nvalue = [1, 0, 1]\nclass = 0", fillcolor="#ffffff"] ;
774 -> 776 ;
777 [label="flow_iat_min <= 17855.5\ngini = 0.2407\nsamples = 27\nvalue = [38, 1, 5]\nclass = 0", fillcolor="#e99457"] ;
773 -> 777 ;
778 [label="gini = 0.0\nsamples = 21\nvalue = [32, 0, 0]\nclass = 0", fillcolor="#e58139"] ;
777 -> 778 ;
779 [label="gini = 0.5694\nsamples = 6\nvalue = [6, 1, 5]\nclass = 0", fillcolor="#fbede3"] ;
777 -> 779 ;
780 [label="pkt_size_avg <= 439.0\ngini = 0.6146\nsamples = 72\nvalue = [19, 40, 56]\nclass = 2", fillcolor="#e4d5f9"] ;
764 -> 780 ;
781 [label="pkt_size_max <= 983.0\ngini = 0.4856\nsamples = 35\nvalue = [10, 36, 7]\nclass = 1", fillcolor="#87efb3"] ;
780 -> 781 ;
782 [label="bin_3 <= 5.5\ngini = 0.1653\nsamples = 10\nvalue = [10, 1, 0]\nclass = 0", fillcolor="#e88e4d"] ;
781 -> 782 ;
783 [label="gini = 0.0\nsamples = 9\nvalue = [10, 0, 0]\nclass = 0", fillcolor="#e58139"] ;
782 -> 783 ;
784 [label="gini = 0.0\nsamples = 1\nvalue = [0, 1, 0]\nclass = 1", fillcolor="#39e581"] ;
782 -> 784 ;
785 [label="pkt_size_max <= 1483.0\ngini = 0.2778\nsamples = 25\nvalue = [0, 35, 7]\nclass = 1", fillcolor="#61ea9a"] ;
781 -> 785 ;
786 [label="gini = 0.0\nsamples = 20\nvalue = [0, 32, 0]\nclass = 1", fillcolor="#39e581"] ;
785 -> 786 ;
787 [label="bin_3 <= 4.5\ngini = 0.42\nsamples = 5\nvalue = [0, 3, 7]\nclass = 2", fillcolor="#b78ef0"] ;
785 -> 787 ;
788 [label="gini = 0.0\nsamples = 3\nvalue = [0, 0, 7]\nclass = 2", fillcolor="#8139e5"] ;
787 -> 788 ;
789 [label="gini = 0.0\nsamples = 2\nvalue = [0, 3, 0]\nclass = 1", fillcolor="#39e581"] ;
787 -> 789 ;
790 [label="flow_iat_min <= 1659.5\ngini = 0.3502\nsamples = 37\nvalue = [9, 4, 49]\nclass = 2", fillcolor="#a06aeb"] ;
780 -> 790 ;
791 [label="flow_iat_min <= 211.0\ngini = 0.1396\nsamples = 33\nvalue = [0, 4, 49]\nclass = 2", fillcolor="#8b49e7"] ;
790 -> 791 ;
792 [label="gini = 0.0\nsamples = 1\nvalue = [0, 4, 0]\nclass = 1", fillcolor="#39e581"] ;
791 -> 792 ;
793 [label="gini = 0.0\nsamples = 32\nvalue = [0, 0, 49]\nclass = 2", fillcolor="#8139e5"] ;
791 -> 793 ;
794 [label="gini = 0.0\nsamples = 4\nvalue = [9, 0, 0]\nclass = 0", fillcolor="#e58139"] ;
790 -> 794 ;
}